svm_type c_svc
kernel_type polynomial
degree 1
gamma 0.1
coef0 0
nr_class 13
total_sv 296
rho 1.20638 0.645725 -1.43668 -2.09872 1.24722 -4.12647 -0.642945 -1.28876 1.36911 0.591128 -0.167035 0.0856874 -0.461966 -10.6266 -1.56885 0.199757 -4.06544 -0.736119 -2.21088 0.614331 -0.0829941 -0.65644 -0.0912916 -1.44881 -1.76152 0.450168 -2.52618 -1.12913 -1.0831 0.345352 0.284452 -1.19941 -1.06433 0.244 1.17003 -0.894233 -0.00233871 1.61166 3.63331 0.90699 0.452464 0.691832 1.67491 -3.68107 -1.08118 0.87425 2.17047 0.825338 -0.43431 -0.214581 -1.97967 -0.970811 -0.962614 -0.146403 -0.797424 -1.04869 -0.842312 -0.239316 2.3741 3.31296 1.04098 0.306816 0.466602 0.353478 0.492755 0.897866 0.00903621 -1.81466 2.15003 0.741846 -0.000388145 0.520022 -0.125462 -0.464197 -0.206532 -0.723214 -0.587553 0.176576
label 25 20 26 33 28 22 31 30 34 32 10 12 11
nr_sv 26 43 29 27 17 26 26 9 30 19 15 11 18
SV
0 0 0 0 0 0 0 0 0.0001596538615320869 0 0 0 2:1 3:23 4:40 5:40 6:40 7:40 8:40 9:40 10:40 11:40 12:39 13:11 14:10 15:9 16:10 17:10 18:10 19:10 20:10 21:10 22:10 23:10 24:10 25:10 26:10 27:10 28:10 29:10 30:10 31:10 32:10 33:10 34:16 35:26 36:30 37:32 38:33 39:35 40:36 41:36 42:37 43:38 44:32 45:27 46:23 47:19 48:14 49:10 50:10 51:10 52:10 53:9 54:9 55:9 56:9 57:9 58:9 59:10 60:9 61:10 62:9 63:9 64:9 65:9 66:9 67:12 68:17 69:18 70:19 71:20 72:20 73:20 74:21 75:21 76:22 77:23 78:24 79:26 80:31 81:36 82:34 83:32 84:30 85:28 86:26 87:22 88:20 89:13 90:6 94:5 95:10 96:54 97:58 98:59 99:61 100:63 101:63 102:65 103:65 104:61 105:59 106:36 107:32 108:30 109:31 110:29 111:29 112:30 113:29 114:28 115:29 116:30 117:30 118:29 119:28 120:29 121:29 122:30 123:33 124:33 125:35 126:35 127:41 128:57 129:56 130:55 131:54 132:50 133:48 134:45 135:38 136:23 137:2 
0 0.001130793465983006 0 0 0 0 0.0001000426072834672 0 0 0.000243943907562692 0 0.0002346718659505799 6:27 7:40 8:41 9:42 10:42 11:43 12:41 13:41 14:41 15:40 16:10 17:10 18:10 19:10 20:10 21:10 22:10 23:10 24:10 25:10 26:10 27:10 28:10 29:10 30:10 31:10 32:10 33:10 34:10 35:23 36:29 37:33 38:35 39:36 40:37 41:38 42:39 43:40 44:37 45:30 46:27 47:25 48:21 49:16 50:11 51:11 52:11 53:11 54:11 55:11 56:11 57:11 58:11 59:11 60:11 61:11 62:11 63:11 64:11 65:11 66:11 67:11 68:14 69:19 70:22 71:22 72:22 73:22 74:23 75:23 76:24 77:25 78:25 79:27 80:29 81:33 82:37 83:35 84:33 85:31 86:29 87:26 88:22 89:19 90:14 93:9 94:48 95:52 96:54 97:56 98:57 99:59 100:60 101:62 102:62 103:61 104:38 105:34 106:33 107:32 108:32 109:31 110:30 111:30 112:30 113:28 114:28 115:28 116:29 117:29 118:30 119:30 120:32 121:32 122:32 123:33 124:36 125:36 126:40 127:60 128:59 129:58 130:56 131:54 132:52 133:50 134:44 135:33 136:28 137:21 
0 0 0 0 0.0001055204780745772 0 0 0 0 0 0 0 2:41 3:42 4:42 5:42 6:42 7:42 8:42 9:42 10:42 11:42 12:41 13:11 14:11 15:11 16:11 17:11 18:11 19:11 20:11 21:11 22:10 23:10 24:9 25:10 26:10 27:10 28:10 29:10 30:10 31:10 32:10 33:11 34:11 35:23 36:30 37:31 38:32 39:34 40:35 41:36 42:37 43:37 44:38 45:36 46:30 47:26 48:21 49:18 50:12 51:11 52:12 53:11 54:11 55:11 56:10 57:10 58:10 59:10 60:10 61:9 62:9 63:9 64:9 65:10 66:10 67:10 68:14 69:19 70:20 71:21 72:22 73:22 74:21 75:23 76:23 77:22 78:23 79:25 80:26 81:27 82:31 83:37 84:36 85:35 86:33 87:31 88:29 89:27 90:25 91:21 92:17 96:4 97:9 98:44 99:59 100:62 101:64 102:66 103:67 104:68 105:69 106:68 107:64 108:61 109:38 110:37 111:35 112:33 113:34 114:33 115:32 116:32 117:31 118:31 119:31 120:32 121:32 122:33 123:34 124:36 125:36 126:39 127:40 128:44 129:48 130:59 131:62 132:60 133:58 134:56 135:53 136:50 137:46 138:42 139:36 
0 0 0 0 0 0 0 0 0.0001863939140504744 0 0 0 2:1 3:40 4:42 5:42 6:42 7:42 8:42 9:42 10:42 11:41 12:15 13:10 14:10 15:10 16:10 17:10 18:10 19:10 20:10 21:10 22:10 23:10 24:10 25:10 26:10 27:10 28:10 29:10 30:10 31:10 32:10 33:10 34:15 35:27 36:29 37:31 38:32 39:34 40:35 41:35 42:36 43:37 44:32 45:28 46:25 47:21 48:15 49:11 50:11 51:10 52:11 53:10 54:10 55:10 56:10 57:9 58:9 59:9 60:9 61:9 62:10 63:9 64:9 65:9 66:13 67:19 68:20 69:20 70:21 71:20 72:20 73:20 74:21 75:21 76:22 77:23 78:24 79:26 80:30 81:36 82:34 83:33 84:31 85:29 86:27 87:24 88:22 89:18 90:13 93:4 94:8 95:11 96:56 97:59 98:61 99:63 100:64 101:65 102:65 103:64 104:61 105:59 106:37 107:35 108:33 109:32 110:32 111:29 112:29 113:29 114:29 115:29 116:29 117:29 118:28 119:31 120:30 121:32 122:32 123:33 124:35 125:37 126:41 127:47 128:57 129:56 130:54 131:51 132:48 133:46 134:42 135:36 136:29 137:8 
0 0 0 0.00037232976631072 0 0 0 0 0 0 0 0 3:40 4:41 5:41 6:41 7:41 8:41 9:41 10:41 11:41 12:41 13:11 14:11 15:10 16:10 17:11 18:11 19:11 20:11 21:11 22:11 23:11 24:11 25:11 26:11 27:11 28:11 29:11 30:11 31:11 32:11 33:11 34:11 35:17 36:29 37:31 38:33 39:34 40:35 41:36 42:37 43:38 44:38 45:39 46:32 47:28 48:23 49:19 50:15 51:11 52:11 53:11 54:11 55:11 56:10 57:10 58:10 59:10 60:10 61:10 62:10 63:9 64:9 65:9 66:10 67:13 68:19 69:20 70:20 71:21 72:21 73:21 74:23 75:21 76:21 77:23 78:23 79:23 80:25 81:27 82:32 83:36 84:35 85:34 86:32 87:30 88:28 89:25 90:22 91:19 92:14 96:6 97:10 98:44 99:59 100:63 101:64 102:66 103:68 104:69 105:69 106:67 107:65 108:63 109:38 110:35 111:34 112:34 113:32 114:31 115:31 116:31 117:31 118:31 119:31 120:31 121:31 122:32 123:32 124:34 125:33 126:35 127:37 128:40 129:44 130:58 131:60 132:58 133:56 134:54 135:51 136:48 137:45 138:40 139:32 
0 0 0.0004070723978159889 0 0 0 0 0.0001498973769021302 0 0 0 0 3:10 4:40 5:41 6:42 7:43 8:42 9:42 10:43 11:43 12:43 13:43 14:21 15:11 16:11 17:11 18:11 19:11 20:10 21:10 22:10 23:10 24:11 25:11 26:11 27:11 28:11 29:11 30:11 31:11 32:11 33:22 34:31 35:33 36:35 37:37 38:38 39:39 40:40 41:41 42:41 43:38 44:33 45:28 46:25 47:21 48:17 49:12 50:11 51:11 52:11 53:10 54:10 55:10 56:10 57:10 58:10 59:10 60:10 61:10 62:10 63:10 64:10 65:10 66:10 67:13 68:17 69:20 70:20 71:20 72:20 73:22 74:22 75:23 76:22 77:24 78:24 79:26 80:32 81:33 82:38 83:36 84:35 85:33 86:31 87:28 88:26 89:24 90:20 91:14 92:12 93:42 94:51 95:57 96:57 97:58 98:62 99:63 100:65 101:64 102:64 103:58 104:40 105:37 106:35 107:33 108:32 109:34 110:34 111:33 112:32 113:32 114:31 115:31 116:32 117:31 118:33 119:34 120:34 121:34 122:34 123:36 124:36 125:39 126:41 127:46 128:64 129:63 130:61 131:59 132:57 133:54 134:50 135:45 136:32 137:26 
0 0 0 0 0 0 0 0 8.988571368568673e-05 0 0 0 4:7 5:40 6:43 7:44 8:44 9:43 10:43 11:43 12:43 13:43 14:42 15:23 16:12 17:11 18:11 19:11 20:11 21:11 22:11 23:10 24:11 25:11 26:10 27:10 28:10 29:11 30:11 31:10 32:10 33:10 34:10 35:11 36:11 37:27 38:29 39:31 40:32 41:34 42:35 43:35 44:36 45:37 46:38 47:35 48:28 49:24 50:18 51:14 52:11 53:11 54:11 55:12 56:11 57:11 58:10 59:10 60:10 61:10 62:11 63:11 64:10 65:10 66:10 67:10 68:12 69:17 70:19 71:22 72:21 73:22 74:21 75:22 76:23 77:23 78:23 79:25 80:27 81:29 82:33 83:38 84:36 85:34 86:33 87:31 88:28 89:26 90:24 91:21 92:15 93:4 94:9 95:12 96:56 97:59 98:62 99:64 100:65 101:67 102:67 103:67 104:64 105:62 106:51 107:39 108:37 109:34 110:32 111:32 112:32 113:30 114:31 115:31 116:31 117:31 118:32 119:32 120:33 121:35 122:36 123:35 124:37 125:39 126:44 127:47 128:59 129:58 130:55 131:53 132:51 133:48 134:47 135:41 136:35 137:29 138:11 139:3 
0 0 0 0 0 0 0 0.0001984970868782957 0 0 0 0 2:13 3:38 4:42 5:42 6:44 7:43 8:43 9:43 10:43 11:43 12:40 13:13 14:11 15:10 16:10 17:11 18:11 19:10 20:10 21:10 22:10 23:10 24:10 25:11 26:11 27:10 28:10 29:10 30:11 31:11 32:11 33:14 34:31 35:37 36:38 37:37 38:38 39:39 40:40 41:41 42:41 43:42 44:33 45:31 46:27 47:23 48:17 49:12 50:12 51:12 52:12 53:12 54:12 55:11 56:12 57:12 58:12 59:11 60:11 61:11 62:11 63:11 64:11 65:11 66:11 67:12 68:11 69:14 70:18 71:21 72:24 73:24 74:24 75:24 76:24 77:25 78:27 79:26 80:27 81:31 82:33 83:38 84:37 85:36 86:34 87:31 88:29 89:26 90:23 91:19 92:13 94:3 95:26 96:52 97:54 98:59 99:60 100:61 101:65 102:66 103:67 104:66 105:66 106:44 107:40 108:37 109:33 110:33 111:33 112:32 113:31 114:30 115:30 116:30 117:31 118:30 119:30 120:31 121:31 122:32 123:34 124:34 125:35 126:38 127:41 128:54 129:66 130:65 131:64 132:61 133:59 134:57 135:53 136:50 137:47 138:41 139:30 
0.0005021834731687736 0 0 0 0 0 0 4.385894932641036e-05 0.0001681842293958622 0 0 0 4:39 5:42 6:43 7:43 8:43 9:43 10:43 11:43 12:43 13:42 14:12 15:11 16:10 17:10 18:10 19:10 20:10 21:10 22:10 23:10 24:10 25:11 26:11 27:11 28:10 29:10 30:10 31:11 32:11 33:11 34:11 35:11 36:24 37:30 38:30 39:31 40:32 41:35 42:36 43:37 44:38 45:34 46:28 47:27 48:21 49:17 50:12 51:11 52:11 53:10 54:10 55:10 56:10 57:9 58:9 59:9 60:9 61:9 62:9 63:9 64:9 65:9 66:9 67:13 68:18 69:19 70:19 71:19 72:19 73:21 74:20 75:21 76:22 77:22 78:23 79:25 80:25 81:30 82:36 83:34 84:32 85:30 86:28 87:26 88:22 89:17 90:13 97:38 98:52 99:56 100:57 101:60 102:62 103:63 104:65 105:66 106:66 107:49 108:39 109:34 110:32 111:31 112:30 113:30 114:29 115:29 116:28 117:28 118:28 119:28 120:28 121:30 122:30 123:30 124:31 125:31 126:33 127:32 128:33 129:36 130:41 131:57 132:56 133:54 134:52 135:50 136:48 137:45 138:40 139:36 
0.0007069231059911281 0.001104159889932377 0.0002904851910685867 0.001386672652228791 0 5.266062307971957e-05 0.0001993879590805755 0.0005734929848596161 0.0005745820906691266 0.0002843153642984115 0.0002257469486493887 0.0002235851226035284 1:41 2:41 3:41 4:41 5:40 6:39 7:13 8:11 9:10 10:10 11:10 12:10 13:11 14:11 15:11 16:11 17:11 18:11 19:11 20:11 21:11 22:11 23:11 24:11 25:11 26:11 27:11 28:11 29:24 30:30 31:32 32:34 33:35 34:36 35:37 36:38 37:39 38:39 39:34 40:30 41:27 42:23 43:18 44:12 45:11 46:11 47:12 48:12 49:11 50:11 51:11 52:11 53:11 54:11 55:11 56:11 57:11 58:10 59:10 60:10 61:11 62:11 63:17 64:21 65:22 66:22 67:22 68:23 69:23 70:24 71:25 72:25 73:26 74:28 75:29 76:35 77:38 78:36 79:35 80:34 81:32 82:30 83:26 84:24 85:20 86:14 87:5 94:7 95:11 96:53 97:55 98:57 99:60 100:61 101:63 102:63 103:64 104:64 105:61 106:54 107:35 108:32 109:31 110:29 111:28 112:29 113:29 114:27 115:27 116:27 117:26 118:27 119:27 120:28 121:28 122:30 123:30 124:32 125:33 126:35 127:41 128:55 129:57 130:56 131:54 132:52 133:50 134:47 135:42 136:38 137:29 138:20 
0 0 0 0 0 0.0004031022607703426 0 0 0 0 0 0 1:45 2:44 3:44 4:45 5:45 6:46 7:46 8:44 9:43 10:32 11:13 12:13 13:12 14:12 15:12 16:12 17:13 18:13 19:13 20:13 21:12 22:12 23:13 24:12 25:13 26:13 27:13 28:14 29:13 30:13 31:13 32:21 33:29 34:33 35:35 36:36 37:37 38:37 39:38 40:39 41:39 42:40 43:41 44:39 45:33 46:29 47:25 48:22 49:18 50:14 51:13 52:13 53:13 54:14 55:14 56:13 57:13 58:14 59:14 60:14 61:13 62:13 63:13 64:13 65:13 66:13 67:19 68:25 69:27 70:27 71:27 72:28 73:29 74:29 75:28 76:27 77:29 78:29 79:31 80:33 81:36 82:40 83:39 84:38 85:38 86:36 87:33 88:31 89:28 90:25 91:21 92:16 93:7 94:19 95:57 96:61 97:63 98:65 99:67 100:68 101:70 102:70 103:70 104:71 105:71 106:69 107:56 108:42 109:39 110:36 111:34 112:34 113:32 114:33 115:32 116:32 117:33 118:34 119:34 120:36 121:36 122:38 123:40 124:41 125:46 126:59 127:66 128:66 129:64 130:62 131:61 132:59 133:57 134:55 135:53 136:47 137:41 138:37 139:25 
0 0 0 0 0.0001996150361868718 0 0 0 0 0 0 0 1:39 2:41 3:42 4:41 5:41 6:41 7:41 8:41 9:40 10:37 11:12 12:10 13:9 14:9 15:10 16:10 17:9 18:9 19:10 20:10 21:10 22:10 23:10 24:9 25:10 26:10 27:10 28:10 29:9 30:9 31:10 32:10 33:9 34:12 35:25 36:29 37:32 38:33 39:34 40:35 41:37 42:37 43:37 44:38 45:32 46:27 47:24 48:23 49:20 50:15 51:11 52:11 53:10 54:10 55:10 56:10 57:10 58:10 59:10 60:10 61:10 62:10 63:9 64:9 65:9 66:9 67:9 68:9 69:14 70:16 71:20 72:20 73:21 74:20 75:21 76:22 77:23 78:22 79:21 80:23 81:25 82:26 83:29 84:34 85:35 86:33 87:32 88:30 89:27 90:25 91:23 92:21 96:2 97:7 98:29 99:59 100:62 101:65 102:68 103:69 104:69 105:71 106:71 107:68 108:45 109:39 110:36 111:33 112:31 113:30 114:30 115:30 116:29 117:29 118:29 119:30 120:29 121:29 122:29 123:31 124:32 125:34 126:34 127:37 128:38 129:41 130:56 131:62 132:60 133:58 134:56 135:52 136:48 137:45 138:40 139:35 
0 0 0 0 0 0 0 0 0 0 8.836919398215089e-05 0 1:17 2:20 3:44 4:45 5:45 6:45 7:45 8:45 9:45 10:45 11:45 12:45 13:45 14:45 15:45 16:29 17:18 18:15 19:15 20:15 21:15 22:15 23:14 24:13 25:13 26:13 27:13 28:14 29:13 30:14 31:14 32:19 33:27 34:30 35:33 36:35 37:37 38:38 39:39 40:39 41:40 42:41 43:42 44:43 45:43 46:44 47:36 48:32 49:28 50:23 51:16 52:13 53:12 54:12 55:11 56:11 57:11 58:11 59:11 60:11 61:10 62:10 63:11 64:11 65:10 66:12 67:20 68:22 69:24 70:24 71:24 72:25 73:26 74:26 75:28 76:29 77:30 78:32 79:36 80:43 81:42 82:42 83:40 84:40 85:38 86:36 87:34 88:31 89:29 90:26 91:22 92:17 94:2 95:37 96:56 97:59 98:62 99:65 100:66 101:67 102:69 103:70 104:70 105:72 106:71 107:71 108:67 109:57 110:47 111:47 112:45 113:44 114:43 115:41 116:42 117:42 118:41 119:41 120:43 121:43 122:43 123:44 124:45 125:45 126:47 127:51 128:53 129:68 130:70 131:68 132:67 133:65 134:64 135:62 136:61 137:59 138:57 139:53 
0 0 0 0.001236637712548329 0 0.0005274662150538012 0.0001535048399878182 0 0 0 0.0002104869594307025 0 2:34 3:41 4:43 5:43 6:44 7:44 8:44 9:44 10:44 11:44 12:44 13:43 14:43 15:42 16:15 17:13 18:11 19:9 20:12 21:13 22:13 23:14 24:14 25:14 26:14 27:14 28:14 29:14 30:14 31:15 32:25 33:29 34:32 35:34 36:36 37:37 38:38 39:39 40:40 41:41 42:42 43:42 44:43 45:43 46:43 47:36 48:32 49:29 50:23 51:15 52:15 53:14 54:14 55:14 56:14 57:14 58:14 59:13 60:13 61:13 62:13 63:13 64:17 65:23 66:25 67:26 68:27 69:28 70:28 71:28 72:29 73:30 74:29 75:31 76:32 77:35 78:39 79:42 80:40 81:39 82:36 83:35 84:35 85:33 86:31 87:28 88:26 89:22 90:16 91:9 93:8 94:51 95:58 96:60 97:61 98:65 99:66 100:69 101:71 102:72 103:72 104:72 105:71 106:70 107:59 108:47 109:47 110:45 111:44 112:43 113:43 114:42 115:42 116:42 117:42 118:43 119:42 120:42 121:44 122:44 123:45 124:47 125:50 126:60 127:69 128:67 129:67 130:65 131:64 132:63 133:59 134:57 135:54 136:49 137:41 138:31 139:27 
0 0 0.0001314622649248359 0 0 0.0004010252754344564 0 0 0 0 0 0 3:38 4:40 5:41 6:41 7:41 8:41 9:41 10:41 11:41 12:41 13:40 14:12 15:11 16:11 17:11 18:10 19:10 20:10 21:11 22:11 23:11 24:11 25:11 26:11 27:10 28:10 29:10 30:10 31:10 32:10 33:11 34:11 35:17 36:23 37:30 38:32 39:34 40:35 41:36 42:37 43:38 44:39 45:39 46:39 47:32 48:28 49:26 50:22 51:16 52:11 53:11 54:11 55:11 56:10 57:10 58:11 59:11 60:11 61:11 62:11 63:11 64:11 65:11 66:11 67:11 68:11 69:11 70:13 71:18 72:20 73:20 74:20 75:20 76:20 77:21 78:21 79:23 80:22 81:24 82:26 83:27 84:29 85:35 86:38 87:37 88:35 89:33 90:31 91:29 92:27 93:33 94:59 95:64 96:66 97:67 98:68 99:70 100:72 101:71 102:65 103:63 104:38 105:35 106:34 107:32 108:31 109:31 110:30 111:31 112:30 113:30 114:30 115:30 116:31 117:30 118:31 119:32 120:33 121:34 122:36 123:38 124:40 125:44 126:65 127:63 128:61 129:59 130:57 131:55 132:53 133:47 134:42 135:27 136:19 
0 0.0005479753554906985 0 0 4.077214231148513e-05 0 0.0002050037606369296 0 0 0.0001558855486822122 0.0002408532686631231 0.0001750176649751399 4:40 5:41 6:41 7:41 8:41 9:41 10:41 11:41 12:41 13:32 14:10 15:10 16:10 17:10 18:10 19:10 20:10 21:10 22:10 23:10 24:10 25:10 26:10 27:10 28:10 29:10 30:10 31:10 32:18 33:29 34:31 35:32 36:34 37:35 38:36 39:37 40:37 41:38 42:38 43:37 44:33 45:31 46:25 47:20 48:16 49:11 50:10 51:9 52:9 53:9 54:9 55:9 56:8 57:8 58:8 59:8 60:8 61:8 62:8 63:8 64:8 65:8 66:10 67:17 68:18 69:19 70:19 71:20 72:21 73:20 74:20 75:21 76:24 77:26 78:27 79:32 80:36 81:34 82:32 83:30 84:28 85:26 86:22 87:18 88:12 97:4 98:8 99:52 100:56 101:57 102:58 103:60 104:62 105:64 106:64 107:60 108:59 109:39 110:36 111:34 112:32 113:32 114:32 115:32 116:31 117:29 118:29 119:29 120:31 121:32 122:32 123:32 124:34 125:33 126:34 127:36 128:36 129:38 130:40 131:49 132:59 133:57 134:53 135:51 136:50 137:47 138:44 139:38 
0 0 0 0 0 0.0006734923521659038 0 0 0 0 0 0 1:41 2:41 3:41 4:41 5:41 6:41 7:41 8:41 9:41 10:41 11:40 12:11 13:11 14:10 15:10 16:10 17:11 18:11 19:11 20:11 21:11 22:11 23:11 24:11 25:11 26:11 27:11 28:11 29:11 30:11 31:11 32:11 33:13 34:25 35:30 36:32 37:34 38:36 39:37 40:38 41:39 42:40 43:40 44:39 45:32 46:29 47:26 48:21 49:17 50:12 51:12 52:12 53:11 54:11 55:11 56:11 57:12 58:12 59:11 60:11 61:11 62:11 63:11 64:11 65:11 66:11 67:11 68:16 69:20 70:21 71:21 72:22 73:22 74:21 75:22 76:22 77:23 78:24 79:26 80:26 81:28 82:30 83:33 84:38 85:36 86:36 87:34 88:32 89:30 90:27 91:24 92:21 93:56 94:60 95:62 96:63 97:67 98:68 99:69 100:71 101:71 102:71 103:63 104:40 105:39 106:37 107:36 108:34 109:34 110:32 111:31 112:31 113:30 114:31 115:32 116:31 117:31 118:32 119:33 120:34 121:34 122:36 123:37 124:40 125:43 126:53 127:64 128:64 129:62 130:60 131:58 132:56 133:51 134:38 135:33 136:29 137:17 
0 0 7.726212282213909e-05 0 0 0.000379889766831752 0 0 0 0 0 0 1:41 2:43 3:43 4:42 5:42 6:43 7:43 8:43 9:42 10:41 11:12 12:12 13:12 14:12 15:12 16:12 17:12 18:12 19:12 20:12 21:12 22:12 23:13 24:12 25:12 26:13 27:12 28:12 29:12 30:12 31:27 32:30 33:33 34:35 35:36 36:37 37:38 38:40 39:41 40:42 41:43 42:43 43:37 44:33 45:29 46:26 47:21 48:13 49:13 50:13 51:13 52:13 53:13 54:13 55:12 56:12 57:12 58:12 59:12 60:12 61:12 62:12 63:12 64:12 65:20 66:22 67:26 68:26 69:26 70:26 71:26 72:26 73:27 74:29 75:29 76:29 77:31 78:33 79:40 80:40 81:40 82:38 83:36 84:34 85:32 86:30 87:28 88:24 89:19 90:13 93:9 94:17 95:57 96:62 97:63 98:65 99:66 100:67 101:69 102:70 103:70 104:70 105:69 106:63 107:45 108:40 109:37 110:37 111:37 112:35 113:34 114:34 115:33 116:33 117:34 118:34 119:34 120:35 121:36 122:37 123:37 124:39 125:41 126:44 127:54 128:64 129:64 130:62 131:60 132:58 133:56 134:54 135:52 136:48 137:40 138:30 139:22 
0 0 0 0.0001926326252675361 0 0.0002115410807539291 0 0 0 0 0 0 1:42 2:42 3:42 4:42 5:42 6:42 7:42 8:43 9:42 10:14 11:12 12:12 13:12 14:12 15:12 16:13 17:13 18:13 19:13 20:13 21:13 22:13 23:13 24:13 25:13 26:13 27:13 28:13 29:13 30:13 31:25 32:30 33:33 34:35 35:37 36:38 37:39 38:40 39:41 40:43 41:42 42:42 43:35 44:31 45:28 46:24 47:18 48:14 49:13 50:13 51:14 52:13 53:13 54:13 55:13 56:13 57:13 58:13 59:13 60:13 61:13 62:13 63:13 64:13 65:17 66:22 67:24 68:24 69:25 70:25 71:25 72:27 73:27 74:28 75:28 76:30 77:31 78:34 79:40 80:40 81:38 82:36 83:34 84:32 85:30 86:28 87:26 88:22 89:18 90:11 93:11 94:48 95:59 96:61 97:62 98:63 99:66 100:67 101:68 102:70 103:69 104:67 105:64 106:57 107:39 108:36 109:36 110:35 111:34 112:33 113:33 114:33 115:33 116:33 117:33 118:33 119:34 120:35 121:35 122:37 123:40 124:42 125:49 126:64 127:63 128:62 129:60 130:59 131:57 132:55 133:53 134:51 135:48 136:42 137:28 138:17 
0 0 0 0.0004844403949636678 0 0.0003313171301124703 0 0 0 0 0 0 3:40 4:42 5:42 6:42 7:42 8:43 9:43 10:43 11:43 12:42 13:42 14:28 15:12 16:12 17:11 18:11 19:11 20:11 21:11 22:11 23:11 24:11 25:11 26:11 27:11 28:11 29:11 30:11 31:11 32:11 33:11 34:11 35:19 36:27 37:31 38:33 39:34 40:36 41:37 42:38 43:38 44:39 45:40 46:40 47:34 48:29 49:26 50:21 51:17 52:12 53:12 54:11 55:11 56:11 57:12 58:11 59:11 60:11 61:11 62:11 63:11 64:11 65:11 66:11 67:11 68:16 69:20 70:21 71:21 72:21 73:21 74:21 75:22 76:23 77:23 78:24 79:26 80:27 81:29 82:34 83:38 84:37 85:36 86:34 87:33 88:31 89:28 90:25 91:22 92:17 93:46 94:59 95:61 96:65 97:66 98:68 99:69 100:71 101:70 102:68 103:65 104:44 105:40 106:38 107:37 108:35 109:34 110:34 111:33 112:34 113:34 114:34 115:34 116:34 117:35 118:35 119:35 120:37 121:39 122:38 123:41 124:45 125:53 126:64 127:62 128:60 129:59 130:57 131:53 132:51 133:48 134:43 135:35 136:19 
0 0 0 0 0.0005523773021461996 0 3.331159276577584e-05 0 0 0 0 0 3:37 4:39 5:40 6:41 7:41 8:41 9:41 10:41 11:41 12:40 13:27 14:11 15:10 16:10 17:10 18:10 19:10 20:10 21:10 22:10 23:10 24:10 25:10 26:10 27:10 28:10 29:10 30:10 31:11 32:18 33:25 34:30 35:32 36:33 37:34 38:35 39:37 40:38 41:38 42:39 43:35 44:30 45:28 46:25 47:21 48:8 49:8 50:7 51:6 52:6 53:5 54:7 55:8 56:8 57:9 58:9 59:9 60:9 61:9 62:9 63:10 64:10 65:11 66:11 67:14 68:17 69:19 70:19 71:19 72:19 73:20 74:21 75:21 76:21 77:22 78:24 79:25 80:28 81:38 82:37 83:36 84:34 85:32 86:30 87:28 88:26 89:22 90:18 91:13 92:3 93:51 94:56 95:59 96:62 97:63 98:65 99:66 100:67 101:66 102:62 103:42 104:38 105:37 106:36 107:34 108:31 109:32 110:33 111:32 112:31 113:33 114:33 115:33 116:33 117:33 118:34 119:35 120:34 121:36 122:37 123:37 124:39 125:49 126:56 127:60 128:58 129:57 130:55 131:51 132:46 133:35 134:21 135:6 
0 0 0 0.0001811508509595639 0 0 0 0 0 0 0 0 1:1 2:34 3:37 4:39 5:41 6:42 7:42 8:42 9:42 10:42 11:41 12:41 13:26 14:13 15:11 16:11 17:11 18:10 19:11 20:11 21:11 22:11 23:13 24:13 25:13 26:13 27:13 28:14 29:13 30:13 31:12 32:12 33:11 34:21 35:29 36:31 37:34 38:34 39:36 40:37 41:39 42:40 43:39 44:38 45:39 46:34 47:30 48:24 49:20 50:15 51:14 52:13 53:13 54:12 55:12 56:12 57:12 58:12 59:12 60:12 61:12 62:11 63:11 64:11 65:11 66:11 67:13 68:18 69:21 70:24 71:25 72:26 73:25 74:27 75:29 76:27 77:26 78:28 79:28 80:34 81:41 82:39 83:37 84:35 85:33 86:30 87:28 88:25 89:22 90:19 91:13 92:7 94:5 95:9 96:12 97:38 98:58 99:60 100:62 101:64 102:65 103:67 104:67 105:69 106:68 107:64 108:57 109:49 110:41 111:37 112:37 113:35 114:34 115:35 116:34 117:35 118:35 119:32 120:34 121:35 122:36 123:35 124:37 125:39 126:43 127:46 128:58 129:64 130:61 131:58 132:59 133:57 134:55 135:54 136:50 137:48 138:44 139:39 
0.001217046089032415 0.0002408755818976717 0.0008539641610276559 0.001042356112168551 0.0003758337757061426 0.0009499210043657605 0 0.0009563051303224518 0.0006579911728635229 0.0001203111207363258 0.000124557023575625 0 6:16 7:40 8:42 9:42 10:42 11:43 12:43 13:43 14:43 15:43 16:22 17:9 18:10 19:10 20:10 21:10 22:10 23:10 24:9 25:9 26:10 27:10 28:10 29:10 30:10 31:10 32:10 33:10 34:10 35:10 36:20 37:29 38:32 39:34 40:36 41:36 42:37 43:38 44:39 45:41 46:33 47:29 48:27 49:24 50:19 51:12 52:12 53:12 54:12 55:12 56:12 57:12 58:11 59:11 60:12 61:12 62:11 63:11 64:11 65:12 66:12 67:11 68:11 69:11 70:11 71:18 72:21 73:23 74:22 75:22 76:22 77:24 78:24 79:25 80:27 81:27 82:28 83:32 84:38 85:37 86:35 87:33 88:31 89:28 90:25 91:22 92:17 93:9 94:18 95:44 96:56 97:59 98:60 99:61 100:64 101:63 102:63 103:63 104:59 105:39 106:36 107:31 108:30 109:29 110:30 111:30 112:29 113:29 114:29 115:29 116:29 117:29 118:29 119:30 120:29 121:30 122:33 123:33 124:35 125:38 126:40 127:56 128:59 129:59 130:57 131:55 132:53 133:51 134:49 135:44 136:40 137:35 138:19 
0 0 0 0.0005954594418754644 0.0003652976651615139 0 7.399692119251997e-05 0 0 0.000303660640817174 0 0 4:1 5:39 6:41 7:41 8:41 9:42 10:42 11:42 12:42 13:42 14:41 15:10 16:10 17:9 18:9 19:10 20:11 21:11 22:11 23:10 24:10 25:10 26:10 27:10 28:10 29:10 30:10 31:10 32:10 33:11 34:11 35:11 36:18 37:28 38:30 39:31 40:32 41:33 42:35 43:36 44:37 45:37 46:38 47:29 48:26 49:20 50:16 51:12 52:11 53:11 54:10 55:11 56:11 57:10 58:10 59:10 60:10 61:9 62:9 63:9 64:10 65:9 66:9 67:9 68:13 69:18 70:20 71:20 72:20 73:21 74:22 75:20 76:21 77:22 78:23 79:22 80:24 81:25 82:28 83:32 84:36 85:34 86:32 87:30 88:28 89:26 90:24 91:20 92:15 95:5 96:10 97:31 98:56 99:60 100:62 101:64 102:65 103:66 104:67 105:64 106:61 107:58 108:35 109:33 110:33 111:32 112:31 113:30 114:31 115:30 116:31 117:30 118:30 119:31 120:31 121:30 122:32 123:33 124:34 125:35 126:37 127:39 128:45 129:51 130:58 131:56 132:54 133:52 134:50 135:47 136:43 137:38 138:28 139:1 
0 0 0.0002981880110303056 0 0 0 0 0 0 0 0 0 3:39 4:41 5:42 6:42 7:42 8:42 9:42 10:42 11:42 12:41 13:11 14:11 15:11 16:11 17:11 18:11 19:11 20:11 21:11 22:11 23:11 24:10 25:11 26:11 27:11 28:11 29:11 30:11 31:11 32:11 33:22 34:30 35:34 36:35 37:37 38:38 39:39 40:39 41:40 42:39 43:33 44:30 45:25 46:24 47:21 48:17 49:11 50:11 51:10 52:10 53:11 54:11 55:11 56:11 57:11 58:11 59:11 60:10 61:11 62:11 63:11 64:11 65:10 66:10 67:10 68:10 69:14 70:18 71:18 72:20 73:21 74:21 75:22 76:23 77:24 78:23 79:25 80:25 81:29 82:33 83:37 84:36 85:35 86:33 87:31 88:29 89:26 90:23 91:15 92:12 95:47 96:52 97:56 98:57 99:60 100:62 101:63 102:65 103:66 104:66 105:62 106:40 107:38 108:34 109:31 110:31 111:31 112:31 113:31 114:31 115:30 116:29 117:29 118:30 119:30 120:30 121:32 122:32 123:34 124:32 125:34 126:36 127:38 128:42 129:56 130:62 131:62 132:60 133:58 134:55 135:51 136:46 137:34 138:29 139:18 
0.0004969713813050155 0 0 0 0 0 0 0.0001656062597127363 0 0 0 0 2:40 3:42 4:42 5:42 6:42 7:42 8:42 9:42 10:42 11:41 12:11 13:10 14:10 15:10 16:10 17:10 18:10 19:10 20:10 21:10 22:10 23:10 24:10 25:10 26:10 27:10 28:10 29:10 30:10 31:10 32:22 33:28 34:33 35:35 36:36 37:38 38:39 39:39 40:40 41:41 42:33 43:28 44:25 45:22 46:18 47:12 48:11 49:10 50:11 51:11 52:11 53:11 54:11 55:11 56:11 57:11 58:11 59:11 60:11 61:11 62:11 63:11 64:11 65:11 66:11 67:11 68:17 69:21 70:21 71:21 72:21 73:21 74:23 75:23 76:23 77:24 78:25 79:27 80:28 81:35 82:36 83:34 84:32 85:30 86:28 87:25 88:22 89:18 90:12 93:47 94:51 95:54 96:58 97:59 98:60 99:62 100:63 101:64 102:63 103:41 104:38 105:34 106:33 107:32 108:31 109:32 110:30 111:30 112:30 113:30 114:29 115:29 116:29 117:30 118:30 119:31 120:32 121:31 122:32 123:34 124:34 125:37 126:38 127:63 128:61 129:59 130:58 131:56 132:53 133:51 134:46 135:35 136:31 137:22 
-0 0 0.003735853356070077 0 0 0 0 0 0 0 0 0 4:10 5:16 6:19 7:23 8:25 9:29 10:31 11:33 12:35 13:32 14:25 15:23 16:22 17:22 18:21 19:20 20:20 21:19 22:19 23:20 24:20 25:19 26:19 27:19 28:19 29:19 30:19 31:19 32:19 33:19 34:19 35:20 36:20 37:19 38:19 39:19 40:19 41:19 42:20 43:20 44:20 45:20 46:20 47:20 48:20 49:20 50:20 51:20 52:20 53:20 54:20 55:20 56:20 57:20 58:20 59:20 60:20 61:20 62:20 63:20 64:20 65:20 66:20 67:20 68:20 69:20 70:20 71:20 72:20 73:20 74:19 75:20 76:20 77:21 78:22 79:23 80:24 81:26 82:32 83:36 84:34 85:32 86:30 87:28 88:25 89:22 90:18 91:10 93:57 94:62 95:66 96:70 97:72 98:74 99:76 100:78 101:79 102:66 103:28 104:25 105:24 106:24 107:22 108:20 109:20 110:20 111:20 112:19 113:19 114:18 115:18 116:18 117:19 118:20 119:19 120:18 121:19 122:19 123:20 124:21 125:24 126:25 127:79 128:79 129:77 130:75 131:73 132:70 133:67 134:63 135:58 136:51 
-0 0 0 0 0 1.10277733042706e-05 0 0 0 0 0 0 4:14 5:18 6:22 7:25 8:29 9:31 10:33 11:35 12:36 13:37 14:34 15:29 16:27 17:25 18:24 19:23 20:23 21:23 22:22 23:22 24:22 25:22 26:21 27:21 28:21 29:21 30:21 31:21 32:21 33:21 34:21 35:21 36:21 37:21 38:21 39:22 40:22 41:22 42:22 43:22 44:22 45:22 46:23 47:23 48:22 49:22 50:22 51:22 52:21 53:21 54:21 55:21 56:21 57:21 58:21 59:21 60:21 61:20 62:20 63:20 64:20 65:20 66:20 67:20 68:20 69:20 70:20 71:20 72:21 73:22 74:22 75:23 76:23 77:23 78:25 79:26 80:27 81:30 82:33 83:38 84:37 85:35 86:33 87:31 88:29 89:26 90:23 91:20 92:15 94:2 95:57 96:63 97:67 98:70 99:73 100:75 101:77 102:79 103:81 104:82 105:58 106:31 107:28 108:27 109:25 110:25 111:24 112:23 113:22 114:22 115:20 116:20 117:20 118:20 119:20 120:21 121:22 122:22 123:24 124:24 125:24 126:25 127:27 128:30 129:63 130:81 131:81 132:79 133:77 134:75 135:72 136:69 137:65 138:61 139:55 
-0 0.0002450643770718058 0 0 0 0 0 0 0 0.0001739680654722162 0 0 5:8 6:18 7:21 8:24 9:26 10:29 11:31 12:33 13:35 14:37 15:30 16:26 17:24 18:22 19:21 20:21 21:19 22:19 23:18 24:18 25:19 26:19 27:19 28:19 29:19 30:19 31:19 32:19 33:19 34:19 35:19 36:18 37:19 38:19 39:19 40:19 41:19 42:19 43:18 44:17 45:18 46:18 47:18 48:17 49:17 50:18 51:18 52:18 53:17 54:17 55:17 56:18 57:18 58:17 59:17 60:17 61:17 62:17 63:17 64:16 65:17 66:17 67:17 68:18 69:18 70:18 71:18 72:18 73:19 74:20 75:21 76:22 77:25 78:26 79:30 80:36 81:35 82:33 83:31 84:29 85:26 86:23 87:21 88:15 89:8 93:59 94:63 95:67 96:69 97:71 98:73 99:75 100:76 101:54 102:28 103:26 104:22 105:23 106:21 107:22 108:21 109:21 110:20 111:20 112:20 113:20 114:20 115:20 116:19 117:19 118:20 119:20 120:21 121:22 122:24 123:25 124:27 125:31 126:77 127:74 128:73 129:71 130:69 131:67 132:64 133:58 134:51 135:21 
-0 0 0.008717884903843984 0 0 0 0 0 0 0 0 0 1:17 2:18 3:24 4:31 5:34 6:36 7:38 8:39 9:40 10:42 11:37 12:37 13:37 14:32 15:28 16:25 17:24 18:22 19:21 20:19 21:20 22:18 23:18 24:18 25:18 26:18 27:18 28:18 29:18 30:18 31:18 32:18 33:18 34:18 35:18 36:18 37:18 38:18 39:18 40:18 41:18 42:18 43:18 44:18 45:19 46:19 47:19 48:19 49:19 50:19 51:19 52:19 53:19 54:19 55:19 56:19 57:19 58:19 59:19 60:19 61:18 62:18 63:18 64:18 65:19 66:19 67:19 68:19 69:18 70:18 71:19 72:18 73:18 74:19 75:20 76:20 77:21 78:22 79:23 80:26 81:36 82:37 83:36 84:34 85:31 86:28 87:25 88:21 89:14 90:5 93:9 94:10 95:10 96:10 97:59 98:70 99:74 100:78 101:81 102:83 103:84 104:84 105:85 106:86 107:63 108:33 109:28 110:25 111:22 112:21 113:20 114:21 115:21 116:20 117:19 118:19 119:19 120:19 121:19 122:20 123:21 124:19 125:19 126:21 127:21 128:22 129:23 130:25 131:27 132:75 133:77 134:76 135:76 136:74 137:72 138:69 139:67 
-2.768799753331435e-05 0.0001073547227567088 0 0 0 0 0.0001852144196046478 0.0008878943535680831 0 8.037212077701486e-05 0.0002062173109793383 0.0001328294970155059 3:10 4:17 5:22 6:24 7:27 8:30 9:32 10:33 11:35 12:37 13:29 14:26 15:24 16:22 17:22 18:21 19:19 20:20 21:19 22:18 23:18 24:18 25:18 26:18 27:18 28:18 29:19 30:19 31:19 32:19 33:19 34:18 35:18 36:18 37:20 38:19 39:19 40:19 41:19 42:19 43:19 44:19 45:20 46:19 47:19 48:19 49:19 50:19 51:18 52:19 53:19 54:19 55:19 56:19 57:20 58:20 59:20 60:19 61:19 62:20 63:20 64:20 65:19 66:19 67:19 68:20 69:20 70:20 71:21 72:21 73:23 74:25 75:26 76:29 77:32 78:38 79:37 80:36 81:34 82:31 83:29 84:26 85:23 86:17 87:8 93:65 94:67 95:70 96:72 97:73 98:75 99:77 100:78 101:41 102:29 103:25 104:23 105:23 106:22 107:20 108:21 109:20 110:20 111:20 112:20 113:20 114:20 115:20 116:20 117:20 118:20 119:21 120:22 121:24 122:25 123:27 124:31 125:78 126:76 127:76 128:74 129:71 130:69 131:66 132:63 133:60 134:55 135:37 
-0 0 0 0 0 0 0 0.00177099977524763 0 0 0 0 3:14 4:17 5:23 6:26 7:29 8:31 9:33 10:34 11:35 12:32 13:27 14:25 15:24 16:22 17:22 18:21 19:20 20:20 21:19 22:19 23:19 24:19 25:20 26:20 27:20 28:20 29:20 30:20 31:20 32:19 33:19 34:20 35:20 36:20 37:20 38:19 39:19 40:19 41:19 42:19 43:20 44:20 45:21 46:19 47:19 48:19 49:19 50:19 51:19 52:19 53:19 54:19 55:19 56:19 57:19 58:19 59:19 60:19 61:19 62:19 63:19 64:20 65:20 66:20 67:20 68:20 69:20 70:20 71:20 72:21 73:22 74:20 75:22 76:24 77:24 78:26 79:29 80:32 81:36 82:34 83:34 84:32 85:30 86:27 87:22 88:20 89:15 90:8 93:17 94:57 95:62 96:67 97:69 98:72 99:75 100:77 101:79 102:80 103:39 104:27 105:25 106:24 107:23 108:21 109:21 110:20 111:20 112:21 113:19 114:19 115:19 116:19 117:19 118:20 119:21 120:20 121:22 122:23 123:23 124:23 125:26 126:27 127:31 128:80 129:80 130:78 131:76 132:73 133:70 134:68 135:65 136:59 137:49 
-0.0006956986469411966 0 0.0005544371470214128 0.0004794055024909055 0 0.0003687972524070395 0 0 0 0 0 0 2:11 3:16 4:20 5:24 6:28 7:30 8:32 9:34 10:35 11:36 12:28 13:26 14:24 15:23 16:21 17:20 18:19 19:18 20:18 21:18 22:18 23:18 24:18 25:18 26:18 27:18 28:18 29:18 30:18 31:18 32:18 33:18 34:18 35:18 36:18 37:18 38:18 39:18 40:18 41:18 42:18 43:18 44:18 45:18 46:18 47:18 48:18 49:18 50:17 51:18 52:18 53:18 54:18 55:18 56:18 57:18 58:18 59:18 60:18 61:18 62:17 63:17 64:17 65:17 66:18 67:18 68:17 69:19 70:19 71:19 72:19 73:20 74:22 75:23 76:24 77:26 78:29 79:35 80:35 81:34 82:32 83:30 84:28 85:25 86:23 87:19 88:12 93:64 94:67 95:69 96:73 97:75 98:77 99:79 100:79 101:31 102:26 103:25 104:24 105:22 106:21 107:22 108:21 109:20 110:20 111:20 112:20 113:19 114:19 115:20 116:20 117:20 118:20 119:21 120:22 121:22 122:24 123:26 124:29 125:74 126:79 127:77 128:75 129:73 130:71 131:68 132:65 133:62 134:53 
-0 0 0 0.0002788156813724708 0 0.0002646142897512859 0 0 0 0 1.401339700558061e-05 0 3:11 4:17 5:22 6:26 7:28 8:31 9:33 10:35 11:37 12:39 13:41 14:41 15:43 16:43 17:45 18:40 19:37 20:34 21:32 22:30 23:28 24:29 25:28 26:27 27:27 28:27 29:27 30:27 31:27 32:27 33:27 34:27 35:27 36:27 37:27 38:27 39:27 40:27 41:27 42:27 43:27 44:27 45:27 46:27 47:27 48:27 49:27 50:27 51:27 52:27 53:27 54:27 55:27 56:27 57:27 58:27 59:27 60:27 61:27 62:27 63:27 64:27 65:27 66:27 67:27 68:27 69:27 70:27 71:27 72:27 73:29 74:30 75:32 76:32 77:35 78:37 79:42 80:44 81:43 82:41 83:40 84:39 85:37 86:35 87:33 88:31 89:27 90:25 91:20 92:14 93:61 94:66 95:69 96:72 97:74 98:76 99:78 100:80 101:82 102:83 103:84 104:86 105:86 106:39 107:36 108:34 109:33 110:33 111:32 112:30 113:30 114:28 115:28 116:28 117:29 118:29 119:30 120:31 121:31 122:33 123:35 124:36 125:40 126:85 127:85 128:84 129:82 130:81 131:80 132:78 133:76 134:74 135:72 136:68 137:65 138:61 139:52 
-0 0 0.005895799909969399 0 0 0.0002474621903882906 0 0 0 0 0 0 2:9 3:17 4:22 5:26 6:30 7:33 8:35 9:37 10:39 11:41 12:42 13:43 14:43 15:44 16:39 17:35 18:33 19:31 20:29 21:29 22:28 23:28 24:26 25:26 26:26 27:26 28:26 29:26 30:26 31:26 32:26 33:26 34:26 35:26 36:26 37:26 38:26 39:26 40:26 41:26 42:26 43:26 44:26 45:26 46:26 47:26 48:26 49:26 50:26 51:26 52:26 53:26 54:26 55:26 56:26 57:26 58:26 59:26 60:26 61:26 62:26 63:26 64:26 65:26 66:26 67:26 68:26 69:26 70:26 71:26 72:26 73:26 74:26 75:26 76:26 77:28 78:28 79:30 80:30 81:32 82:33 83:37 84:43 85:45 86:44 87:44 88:43 89:41 90:40 91:38 92:36 93:60 94:66 95:70 96:73 97:76 98:79 99:81 100:83 101:84 102:85 103:86 104:87 105:87 106:88 107:88 108:36 109:32 110:28 111:27 112:25 113:24 114:23 115:23 116:23 117:22 118:22 119:23 120:23 121:24 122:24 123:26 124:25 125:27 126:29 127:33 128:36 129:89 130:88 131:88 132:87 133:87 134:86 135:86 136:84 137:82 138:80 139:78 
-0 0 0.007639088440805007 0 0 0.0004803069245345491 0 0 0 0 0 0 4:12 5:17 6:21 7:24 8:28 9:30 10:32 11:34 12:36 13:37 14:37 15:28 16:25 17:25 18:24 19:23 20:21 21:20 22:20 23:20 24:20 25:19 26:19 27:19 28:19 29:19 30:19 31:19 32:19 33:20 34:20 35:20 36:19 37:19 38:18 39:18 40:19 41:19 42:19 43:19 44:19 45:20 46:19 47:20 48:17 49:17 50:17 51:17 52:18 53:18 54:18 55:17 56:17 57:18 58:18 59:18 60:18 61:18 62:18 63:18 64:18 65:18 66:18 67:18 68:18 69:18 70:18 71:18 72:18 73:18 74:18 75:19 76:19 77:20 78:20 79:21 80:23 81:23 82:25 83:27 84:30 85:34 86:39 87:37 88:35 89:33 90:31 91:29 92:25 93:67 94:71 95:73 96:76 97:78 98:80 99:82 100:83 101:54 102:29 103:26 104:24 105:22 106:20 107:20 108:19 109:19 110:19 111:18 112:17 113:18 114:18 115:18 116:19 117:19 118:19 119:20 120:22 121:21 122:22 123:26 124:28 125:32 126:61 127:84 128:83 129:81 130:79 131:77 132:75 133:71 134:67 135:62 136:25 
-0 0 0 0 0 0 0 0.0001697734875231654 0 0 0 0 1:10 2:16 3:20 4:24 5:26 6:29 7:31 8:33 9:35 10:37 11:37 12:30 13:28 14:26 15:24 16:24 17:23 18:21 19:22 20:22 21:20 22:20 23:20 24:20 25:20 26:20 27:20 28:20 29:20 30:20 31:20 32:20 33:20 34:20 35:20 36:20 37:20 38:20 39:20 40:20 41:20 42:20 43:20 44:20 45:21 46:20 47:20 48:20 49:20 50:20 51:20 52:20 53:20 54:20 55:21 56:21 57:21 58:21 59:20 60:20 61:21 62:20 63:21 64:21 65:21 66:21 67:21 68:21 69:21 70:21 71:21 72:21 73:20 74:21 75:22 76:21 77:23 78:22 79:24 80:25 81:26 82:29 83:34 84:37 85:35 86:34 87:32 88:30 89:27 90:25 91:22 92:18 95:16 96:59 97:66 98:70 99:74 100:76 101:78 102:80 103:82 104:84 105:86 106:34 107:29 108:28 109:25 110:25 111:23 112:22 113:22 114:21 115:21 116:20 117:19 118:20 119:20 120:21 121:21 122:21 123:22 124:23 125:24 126:24 127:27 128:28 129:34 130:85 131:83 132:83 133:81 134:79 135:76 136:74 137:70 138:66 139:59 
-0 0 0.003679818691045039 0 0 0 0 0 0 0 0 0 4:5 5:13 6:17 7:24 8:26 9:30 10:33 11:36 12:38 13:37 14:30 15:28 16:26 17:24 18:24 19:24 20:24 21:22 22:22 23:22 24:22 25:22 26:21 27:21 28:21 29:22 30:22 31:22 32:22 33:22 34:22 35:22 36:22 37:22 38:22 39:22 40:22 41:22 42:22 43:22 44:22 45:22 46:22 47:22 48:22 49:22 50:22 51:22 52:22 53:21 54:21 55:21 56:21 57:22 58:22 59:22 60:22 61:22 62:22 63:22 64:22 65:22 66:22 67:22 68:22 69:22 70:22 71:22 72:21 73:21 74:22 75:24 76:24 77:26 78:25 79:26 80:29 81:32 82:38 83:39 84:38 85:36 86:34 87:33 88:30 89:26 90:24 91:17 92:14 93:54 94:63 95:68 96:73 97:75 98:77 99:78 100:79 101:80 102:80 103:78 104:33 105:28 106:26 107:22 108:22 109:22 110:22 111:23 112:22 113:21 114:20 115:19 116:19 117:20 118:20 119:20 120:20 121:21 122:20 123:22 124:24 125:25 126:30 127:32 128:79 129:80 130:79 131:77 132:75 133:73 134:71 135:68 136:64 137:59 138:50 
-0 0 0 0 0 0 0 0.003589169923496322 0 0 0 0 3:8 4:16 5:20 6:23 7:26 8:28 9:31 10:33 11:34 12:35 13:37 14:37 15:29 16:27 17:24 18:24 19:23 20:22 21:21 22:21 23:21 24:20 25:20 26:19 27:19 28:20 29:19 30:19 31:19 32:19 33:19 34:19 35:19 36:19 37:19 38:19 39:19 40:19 41:19 42:19 43:19 44:19 45:19 46:19 47:19 48:19 49:19 50:20 51:20 52:20 53:20 54:20 55:20 56:20 57:20 58:20 59:20 60:20 61:20 62:20 63:20 64:20 65:20 66:20 67:20 68:20 69:20 70:20 71:20 72:21 73:21 74:21 75:22 76:21 77:22 78:23 79:24 80:25 81:29 82:33 83:38 84:37 85:35 86:33 87:32 88:30 89:27 90:24 91:21 92:16 95:54 96:61 97:66 98:69 99:72 100:74 101:77 102:79 103:80 104:82 105:35 106:30 107:28 108:26 109:24 110:25 111:24 112:22 113:22 114:23 115:23 116:22 117:22 118:21 119:22 120:22 121:22 122:23 123:23 124:25 125:25 126:26 127:28 128:30 129:34 130:83 131:81 132:80 133:78 134:75 135:72 136:69 137:65 138:60 139:28 
-0 0 0.0001168488186669012 0 0 0 0 0 0 0 0 0 2:13 3:18 4:22 5:26 6:29 7:31 8:33 9:35 10:35 11:37 12:30 13:26 14:25 15:23 16:23 17:22 18:21 19:21 20:20 21:19 22:19 23:19 24:19 25:19 26:19 27:19 28:19 29:20 30:20 31:20 32:20 33:20 34:20 35:20 36:20 37:20 38:20 39:20 40:20 41:20 42:20 43:20 44:20 45:20 46:20 47:20 48:20 49:20 50:20 51:20 52:20 53:20 54:20 55:20 56:20 57:20 58:20 59:20 60:20 61:20 62:20 63:20 64:20 65:20 66:20 67:20 68:20 69:20 70:20 71:20 72:20 73:20 74:22 75:22 76:22 77:23 78:24 79:24 80:27 81:30 82:33 83:37 84:35 85:34 86:32 87:30 88:28 89:25 90:22 91:18 92:12 93:47 94:62 95:67 96:71 97:73 98:76 99:78 100:80 101:82 102:83 103:32 104:28 105:27 106:24 107:24 108:23 109:22 110:23 111:21 112:21 113:20 114:20 115:20 116:20 117:20 118:20 119:21 120:22 121:23 122:22 123:23 124:25 125:26 126:29 127:31 128:84 129:83 130:81 131:79 132:77 133:73 134:71 135:68 136:63 137:57 
-0.0001603495323160119 0 0 0 0 0 0 0.0001852136878750379 0 0 0 0 1:16 2:21 3:25 4:27 5:30 6:32 7:34 8:35 9:37 10:37 11:30 12:26 13:24 14:22 15:23 16:22 17:20 18:20 19:18 20:19 21:19 22:19 23:19 24:19 25:19 26:19 27:19 28:19 29:19 30:19 31:19 32:19 33:19 34:19 35:19 36:19 37:19 38:19 39:19 40:19 41:19 42:19 43:19 44:19 45:19 46:19 47:19 48:19 49:19 50:19 51:19 52:19 53:18 54:18 55:18 56:19 57:19 58:19 59:19 60:19 61:19 62:19 63:18 64:18 65:18 66:18 67:18 68:18 69:19 70:19 71:19 72:20 73:20 74:21 75:23 76:23 77:25 78:27 79:29 80:36 81:35 82:33 83:31 84:29 85:27 86:25 87:21 88:17 89:8 96:40 97:58 98:63 99:68 100:71 101:75 102:77 103:79 104:81 105:83 106:34 107:29 108:27 109:25 110:24 111:23 112:21 113:21 114:19 115:20 116:20 117:20 118:20 119:20 120:20 121:20 122:20 123:21 124:21 125:22 126:23 127:24 128:25 129:27 130:30 131:81 132:80 133:78 134:76 135:74 136:72 137:69 138:66 139:61 
-0 0 0 0 0 0 0 0.001525753833395506 0 0 0 0 5:10 6:19 7:23 8:27 9:30 10:32 11:34 12:35 13:37 14:37 15:30 16:27 17:26 18:24 19:24 20:24 21:23 22:22 23:23 24:22 25:22 26:21 27:21 28:22 29:22 30:21 31:21 32:21 33:21 34:21 35:21 36:21 37:21 38:21 39:21 40:21 41:20 42:21 43:20 44:20 45:20 46:21 47:21 48:20 49:20 50:20 51:20 52:20 53:20 54:20 55:20 56:20 57:20 58:20 59:20 60:20 61:20 62:20 63:20 64:20 65:20 66:20 67:21 68:21 69:21 70:21 71:22 72:22 73:22 74:22 75:23 76:24 77:24 78:26 79:26 80:28 81:30 82:35 83:38 84:37 85:36 86:34 87:32 88:30 89:28 90:24 91:20 92:16 93:16 94:54 95:62 96:67 97:71 98:74 99:76 100:78 101:80 102:82 103:82 104:43 105:32 106:30 107:26 108:25 109:23 110:22 111:21 112:21 113:21 114:20 115:19 116:20 117:20 118:21 119:21 120:22 121:22 122:23 123:25 124:27 125:29 126:33 127:42 128:82 129:81 130:80 131:78 132:76 133:73 134:71 135:67 136:62 137:54 
-1.203992958986627e-05 0 0 0 0 0 0 0 0.0006006833640592739 0 0 0 1:11 2:17 3:21 4:25 5:27 6:30 7:32 8:32 9:35 10:27 11:25 12:22 13:21 14:19 15:18 16:16 17:16 18:17 19:15 20:15 21:14 22:14 23:13 24:14 25:13 26:13 27:14 28:14 29:14 30:14 31:14 32:14 33:14 34:13 35:13 36:13 37:14 38:14 39:14 40:14 41:14 42:14 43:14 44:14 45:14 46:14 47:14 48:14 49:14 50:14 51:14 52:14 53:14 54:14 55:14 56:14 57:14 58:14 59:14 60:14 61:14 62:14 63:14 64:13 65:13 66:13 67:13 68:13 69:14 70:14 71:14 72:14 73:14 74:14 75:16 76:15 77:17 78:17 79:18 80:20 81:21 82:24 83:26 84:32 85:34 86:32 87:30 88:28 89:26 90:21 91:14 92:6 98:58 99:64 100:68 101:72 102:74 103:76 104:78 105:80 106:70 107:28 108:25 109:22 110:22 111:20 112:20 113:18 114:18 115:17 116:18 117:18 118:18 119:17 120:14 121:15 122:16 123:18 124:18 125:18 126:14 127:18 128:20 129:20 130:21 131:22 132:24 133:27 134:30 135:82 136:80 137:77 138:75 139:73 
-0 0 0 0 0 0 0 0.0037454229694088 0 0 0 0 5:1 6:13 7:18 8:23 9:26 10:29 11:32 12:34 13:36 14:37 15:38 16:29 17:27 18:25 19:24 20:23 21:22 22:22 23:22 24:22 25:21 26:20 27:20 28:20 29:20 30:20 31:20 32:20 33:21 34:21 35:21 36:21 37:21 38:21 39:21 40:21 41:21 42:21 43:21 44:21 45:22 46:22 47:22 48:20 49:21 50:21 51:21 52:21 53:20 54:20 55:21 56:21 57:22 58:22 59:21 60:21 61:21 62:21 63:22 64:22 65:22 66:22 67:22 68:21 69:21 70:21 71:21 72:21 73:21 74:22 75:22 76:22 77:24 78:24 79:25 80:28 81:30 82:35 83:38 84:36 85:35 86:33 87:31 88:29 89:25 90:22 91:18 92:11 94:18 95:56 96:61 97:65 98:68 99:72 100:74 101:76 102:78 103:79 104:80 105:31 106:27 107:25 108:23 109:22 110:22 111:22 112:22 113:21 114:21 115:20 116:20 117:20 118:20 119:22 120:21 121:21 122:21 123:23 124:24 125:24 126:26 127:27 128:31 129:71 130:80 131:78 132:76 133:75 134:73 135:71 136:67 137:63 138:59 139:46 
-0 0 0 0 0 0.001542164786129881 0 0 0 0 0 0 3:13 4:19 5:23 6:26 7:28 8:32 9:34 10:36 11:37 12:38 13:34 14:28 15:27 16:25 17:25 18:24 19:22 20:23 21:24 22:24 23:22 24:22 25:22 26:22 27:23 28:24 29:24 30:23 31:23 32:24 33:24 34:24 35:24 36:24 37:24 38:24 39:24 40:24 41:25 42:24 43:26 44:26 45:26 46:26 47:25 48:22 49:22 50:23 51:23 52:23 53:22 54:22 55:23 56:23 57:23 58:23 59:23 60:23 61:23 62:23 63:23 64:23 65:23 66:23 67:23 68:23 69:23 70:23 71:24 72:24 73:24 74:24 75:24 76:26 77:25 78:27 79:28 80:28 81:31 82:33 83:40 84:38 85:38 86:36 87:34 88:32 89:29 90:27 91:23 92:19 93:5 94:56 95:63 96:68 97:71 98:74 99:77 100:79 101:81 102:82 103:84 104:85 105:77 106:35 107:28 108:27 109:25 110:24 111:23 112:22 113:22 114:20 115:20 116:20 117:20 118:20 119:20 120:21 121:21 122:22 123:24 124:24 125:26 126:28 127:30 128:57 129:85 130:83 131:81 132:81 133:79 134:77 135:75 136:71 137:67 138:63 139:57 
-0 0 0.002271334726473409 0 0 0 0 0.002687554924629738 0 0 0 0 3:13 4:19 5:24 6:27 7:30 8:32 9:34 10:36 11:38 12:39 13:40 14:32 15:30 16:27 17:25 18:25 19:23 20:23 21:22 22:22 23:21 24:22 25:21 26:21 27:21 28:21 29:21 30:21 31:21 32:22 33:21 34:20 35:22 36:22 37:22 38:22 39:23 40:23 41:23 42:22 43:22 44:22 45:22 46:22 47:22 48:20 49:20 50:20 51:20 52:20 53:20 54:21 55:21 56:21 57:21 58:20 59:20 60:21 61:21 62:21 63:21 64:21 65:21 66:21 67:21 68:21 69:21 70:21 71:22 72:22 73:24 74:25 75:27 76:27 77:30 78:43 79:42 80:41 81:40 82:39 83:38 84:36 85:35 86:33 87:31 88:29 89:25 90:23 91:18 92:12 93:58 94:65 95:68 96:72 97:74 98:76 99:78 100:80 101:82 102:82 103:39 104:34 105:30 106:29 107:28 108:26 109:27 110:27 111:26 112:26 113:26 114:26 115:26 116:26 117:26 118:26 119:26 120:27 121:27 122:27 123:28 124:29 125:31 126:32 127:68 128:83 129:83 130:81 131:79 132:77 133:74 134:72 135:68 136:64 137:58 138:23 
-0 0 0 0 0 0 0 0.0005533696972334381 0 0 0 0 3:12 4:16 5:21 6:24 7:27 8:29 9:31 10:33 11:35 12:30 13:25 14:24 15:21 16:22 17:20 18:19 19:20 20:19 21:18 22:18 23:18 24:18 25:18 26:18 27:19 28:19 29:18 30:18 31:19 32:19 33:19 34:19 35:19 36:19 37:19 38:19 39:19 40:19 41:19 42:19 43:19 44:19 45:19 46:19 47:19 48:19 49:19 50:19 51:19 52:19 53:19 54:19 55:19 56:19 57:19 58:19 59:19 60:19 61:19 62:19 63:19 64:19 65:19 66:19 67:19 68:19 69:19 70:19 71:19 72:19 73:19 74:18 75:18 76:19 77:21 78:20 79:22 80:22 81:25 82:27 83:34 84:34 85:33 86:31 87:29 88:27 89:24 90:21 91:16 92:9 95:55 96:62 97:67 98:70 99:73 100:76 101:78 102:80 103:82 104:28 105:25 106:25 107:22 108:20 109:21 110:19 111:20 112:20 113:19 114:19 115:19 116:18 117:18 118:19 119:20 120:20 121:19 122:21 123:21 124:22 125:22 126:24 127:26 128:29 129:82 130:80 131:78 132:76 133:74 134:72 135:68 136:64 137:59 138:45 
-0 0 0 0 9.859423645537667e-05 0 0 0 0 0 4.129807086586165e-05 0 6:12 7:18 8:22 9:25 10:28 11:30 12:32 13:28 14:24 15:23 16:21 17:21 18:19 19:18 20:16 21:16 22:16 23:15 24:15 25:16 26:16 27:15 28:15 29:16 30:16 31:16 32:16 33:16 34:15 35:16 36:16 37:16 38:16 39:16 40:16 41:16 42:16 43:16 44:16 45:16 46:16 47:16 48:15 49:15 50:15 51:15 52:15 53:15 54:15 55:15 56:14 57:14 58:14 59:14 60:14 61:14 62:15 63:15 64:15 65:15 66:15 67:15 68:15 69:15 70:15 71:15 72:14 73:13 74:15 75:16 76:16 77:16 78:17 79:19 80:19 81:21 82:22 83:24 84:26 85:31 86:33 87:31 88:28 89:25 90:23 91:19 92:14 93:65 94:69 95:71 96:74 97:76 98:77 99:31 100:24 101:23 102:20 103:20 104:19 105:18 106:17 107:17 108:16 109:16 110:15 111:14 112:14 113:14 114:15 115:15 116:16 117:16 118:17 119:17 120:17 121:19 122:20 123:21 124:22 125:23 126:28 127:77 128:75 129:73 130:71 131:69 132:65 133:61 134:54 135:41 136:18 
-0 0 0.0005781866764386237 0 0 0 0 0 0 0 0 0 1:15 2:20 3:24 4:27 5:29 6:31 7:33 8:35 9:31 10:26 11:23 12:22 13:22 14:20 15:21 16:20 17:18 18:18 19:18 20:17 21:17 22:17 23:17 24:17 25:17 26:17 27:17 28:17 29:17 30:17 31:17 32:17 33:17 34:17 35:17 36:17 37:17 38:17 39:17 40:17 41:17 42:17 43:17 44:17 45:17 46:17 47:17 48:17 49:17 50:17 51:17 52:17 53:17 54:16 55:16 56:16 57:17 58:17 59:16 60:16 61:16 62:16 63:16 64:16 65:16 66:16 67:16 68:16 69:16 70:16 71:16 72:16 73:17 74:17 75:18 76:19 77:19 78:20 79:22 80:20 81:22 82:23 83:26 84:29 85:36 86:35 87:33 88:31 89:28 90:25 91:22 92:19 93:65 94:69 95:73 96:76 97:79 98:81 99:83 100:84 101:31 102:27 103:25 104:22 105:22 106:21 107:20 108:19 109:18 110:18 111:17 112:16 113:16 114:16 115:16 116:16 117:16 118:17 119:18 120:18 121:20 122:19 123:21 124:22 125:24 126:26 127:27 128:32 129:83 130:81 131:79 132:77 133:74 134:70 135:67 136:61 137:36 
-0.0002479471954599711 0.0002029884611551273 0 0.0001026607626275654 0 0.002816201684136576 0 0.001295820480049998 0 0 0.0001392722119591849 6.334198863950353e-05 1:18 2:23 3:26 4:28 5:31 6:33 7:35 8:37 9:28 10:25 11:25 12:22 13:22 14:21 15:20 16:19 17:20 18:20 19:19 20:18 21:18 22:18 23:18 24:18 25:18 26:18 27:18 28:18 29:18 30:18 31:18 32:18 33:18 34:18 35:18 36:18 37:24 38:28 39:27 40:24 41:28 42:30 43:31 44:32 45:32 46:33 47:34 48:34 49:33 50:32 51:30 52:30 53:31 54:31 55:29 56:27 57:22 58:23 59:27 60:27 61:20 62:17 63:17 64:17 65:17 66:17 67:17 68:17 69:17 70:17 71:17 72:18 73:18 74:18 75:20 76:20 77:19 78:20 79:22 80:22 81:24 82:24 83:27 84:30 85:35 86:34 87:33 88:31 89:27 90:25 91:21 92:17 93:60 94:66 95:71 96:74 97:77 98:79 99:82 100:84 101:84 102:30 103:26 104:25 105:24 106:21 107:22 108:20 109:18 110:18 111:22 112:27 113:29 114:26 115:27 116:31 117:33 118:35 119:35 120:37 121:39 122:36 123:38 124:41 125:42 126:44 127:45 128:50 129:53 130:79 131:74 132:71 133:75 134:75 135:69 136:68 137:62 138:28 
-0 0 0 0 0 0 0 0 4.985418513445216e-05 0 0 0 1:14 2:20 3:24 4:27 5:30 6:32 7:34 8:35 9:28 10:26 11:22 12:22 13:20 14:19 15:18 16:17 17:17 18:17 19:16 20:16 21:15 22:15 23:15 24:15 25:15 26:15 27:15 28:15 29:15 30:15 31:15 32:15 33:15 34:15 35:15 36:15 37:15 38:15 39:15 40:15 41:15 42:15 43:15 44:15 45:15 46:15 47:15 48:15 49:16 50:16 51:16 52:15 53:15 54:15 55:15 56:15 57:15 58:15 59:15 60:15 61:16 62:16 63:16 64:16 65:16 66:16 67:16 68:16 69:16 70:16 71:17 72:17 73:17 74:18 75:18 76:19 77:20 78:20 79:22 80:22 81:25 82:26 83:30 84:35 85:33 86:31 87:28 88:26 89:24 90:20 91:15 92:7 96:16 97:61 98:66 99:70 100:74 101:76 102:79 103:81 104:83 105:31 106:26 107:24 108:23 109:21 110:20 111:19 112:19 113:18 114:18 115:17 116:17 117:17 118:17 119:17 120:17 121:18 122:17 123:17 124:19 125:20 126:20 127:20 128:21 129:23 130:24 131:26 132:31 133:82 134:80 135:78 136:75 137:73 138:70 139:66 
-0.0001352339491597098 0 0 0.0003293713611358129 0 0 0 0 0 0 0 0 1:13 2:17 3:21 4:24 5:28 6:31 7:33 8:35 9:36 10:38 11:39 12:29 13:26 14:24 15:23 16:21 17:20 18:19 19:19 20:18 21:18 22:17 23:17 24:17 25:17 26:17 27:17 28:17 29:17 30:17 31:17 32:17 33:17 34:17 35:17 36:17 37:17 38:17 39:18 40:17 41:18 42:18 43:18 44:18 45:18 46:18 47:18 48:18 49:18 50:18 51:18 52:18 53:18 54:18 55:18 56:19 57:19 58:19 59:19 60:19 61:19 62:19 63:19 64:19 65:19 66:19 67:19 68:19 69:19 70:19 71:19 72:19 73:20 74:21 75:20 76:22 77:23 78:25 79:26 80:30 81:33 82:39 83:37 84:37 85:35 86:33 87:31 88:28 89:25 90:22 91:18 92:13 97:19 98:61 99:66 100:70 101:74 102:76 103:79 104:81 105:83 106:83 107:85 108:34 109:29 110:27 111:27 112:26 113:26 114:23 115:23 116:22 117:22 118:22 119:22 120:22 121:22 122:22 123:23 124:23 125:24 126:23 127:24 128:25 129:26 130:27 131:32 132:65 133:83 134:83 135:81 136:79 137:77 138:74 139:72 
-0 0 0.0003189712185601034 0 0 0 0 0 0 0 0 0 1:17 2:21 3:25 4:27 5:30 6:32 7:34 8:36 9:37 10:28 11:26 12:24 13:23 14:22 15:22 16:20 17:21 18:19 19:19 20:19 21:19 22:18 23:18 24:18 25:18 26:18 27:18 28:19 29:19 30:18 31:18 32:18 33:19 34:18 35:18 36:18 37:18 38:18 39:18 40:18 41:18 42:18 43:18 44:18 45:18 46:18 47:18 48:18 49:18 50:18 51:18 52:18 53:18 54:18 55:18 56:18 57:18 58:18 59:18 60:18 61:18 62:18 63:18 64:18 65:18 66:18 67:18 68:18 69:18 70:18 71:18 72:18 73:19 74:19 75:19 76:18 77:20 78:20 79:20 80:22 81:23 82:26 83:26 84:37 85:36 86:34 87:32 88:30 89:27 90:24 91:20 92:15 93:3 94:59 95:64 96:68 97:72 98:76 99:78 100:80 101:82 102:84 103:33 104:28 105:25 106:24 107:22 108:22 109:21 110:20 111:19 112:18 113:18 114:18 115:18 116:18 117:18 118:18 119:18 120:18 121:18 122:19 123:20 124:22 125:22 126:23 127:23 128:25 129:27 130:31 131:84 132:82 133:80 134:78 135:74 136:72 137:68 138:64 139:55 
-0 0 0 0 0 0 0 0.0006345865842427178 0 0 0 0 5:11 6:17 7:22 8:24 9:28 10:30 11:32 12:34 13:35 14:30 15:26 16:23 17:23 18:21 19:20 20:20 21:19 22:18 23:18 24:18 25:19 26:19 27:19 28:19 29:19 30:19 31:19 32:19 33:19 34:19 35:19 36:19 37:19 38:19 39:19 40:19 41:20 42:20 43:20 44:20 45:20 46:20 47:20 48:19 49:19 50:19 51:19 52:20 53:19 54:20 55:20 56:20 57:20 58:20 59:20 60:20 61:20 62:19 63:20 64:20 65:20 66:19 67:19 68:19 69:19 70:19 71:19 72:18 73:19 74:19 75:19 76:20 77:21 78:21 79:21 80:22 81:24 82:26 83:28 84:35 85:34 86:32 87:30 88:28 89:25 90:23 91:19 92:14 95:47 96:62 97:66 98:69 99:72 100:74 101:76 102:78 103:80 104:81 105:27 106:24 107:23 108:21 109:20 110:20 111:19 112:19 113:18 114:18 115:18 116:18 117:18 118:18 119:18 120:20 121:20 122:21 123:21 124:21 125:23 126:24 127:28 128:30 129:80 130:80 131:78 132:76 133:74 134:70 135:68 136:63 137:58 138:20 
-0.0006562357313940089 0.0002430863383338416 0 0.0003650444109655132 0 0.0002374117852826589 0 0 0.0002845314376435197 4.943997663508292e-06 0 0 5:9 6:16 7:21 8:24 9:27 10:29 11:31 12:33 13:35 14:31 15:25 16:24 17:22 18:22 19:20 20:20 21:19 22:20 23:20 24:20 25:19 26:19 27:19 28:19 29:19 30:19 31:19 32:19 33:19 34:19 35:19 36:19 37:19 38:19 39:19 40:19 41:19 42:19 43:18 44:19 45:19 46:19 47:18 48:18 49:18 50:18 51:19 52:19 53:18 54:18 55:18 56:18 57:18 58:18 59:18 60:18 61:18 62:18 63:18 64:18 65:19 66:19 67:19 68:18 69:18 70:18 71:18 72:18 73:18 74:18 75:19 76:19 77:20 78:20 79:21 80:22 81:23 82:25 83:30 84:34 85:33 86:31 87:30 88:28 89:25 90:22 91:18 92:13 95:54 96:62 97:66 98:70 99:72 100:74 101:77 102:79 103:80 104:54 105:27 106:24 107:23 108:21 109:20 110:19 111:19 112:19 113:19 114:18 115:18 116:18 117:18 118:18 119:19 120:20 121:20 122:21 123:20 124:22 125:22 126:25 127:27 128:39 129:80 130:78 131:76 132:74 133:71 134:69 135:65 136:60 137:50 
-0 0 0 0 0 0 0 0 0.000499768701752614 0 0 0.0001240560138130928 6:12 7:19 8:22 9:26 10:29 11:32 12:34 13:27 14:23 15:21 16:19 17:19 18:18 19:18 20:18 21:16 22:17 23:17 24:17 25:16 26:16 27:16 28:16 29:16 30:16 31:16 32:16 33:16 34:16 35:16 36:16 37:16 38:15 39:15 40:15 41:16 42:15 43:15 44:15 45:15 46:15 47:15 48:15 49:15 50:14 51:14 52:14 53:14 54:14 55:14 56:14 57:14 58:14 59:14 60:14 61:15 62:15 63:14 64:14 65:15 66:14 67:16 68:16 69:15 70:16 71:15 72:16 73:16 74:17 75:17 76:19 77:19 78:23 79:25 80:31 81:31 82:30 83:28 84:25 85:22 86:18 87:11 95:28 96:52 97:58 98:62 99:66 100:68 101:70 102:71 103:33 104:24 105:21 106:18 107:17 108:16 109:17 110:15 111:16 112:16 113:15 114:15 115:15 116:14 117:14 118:14 119:15 120:15 121:15 122:16 123:15 124:16 125:17 126:18 127:18 128:19 129:20 130:21 131:43 132:72 133:69 134:68 135:66 136:64 137:60 138:55 139:3 
-0.0007178123847180749 0.0004527827062891737 0 0.0001554444329319215 0.0001722348891938944 0 0.0001664181697752936 0 0.0001063071442706842 0.0001486072553015071 0.0003380257827711528 0 2:14 3:19 4:23 5:26 6:28 7:31 8:33 9:35 10:36 11:27 12:24 13:20 14:19 15:17 16:17 17:16 18:15 19:14 20:15 21:13 22:13 23:13 24:13 25:13 26:13 27:13 28:13 29:13 30:13 31:13 32:13 33:13 34:13 35:13 36:13 37:13 38:13 39:13 40:13 41:13 42:13 43:13 44:13 45:13 46:13 47:13 48:13 49:13 50:14 51:14 52:14 53:14 54:13 55:13 56:14 57:14 58:14 59:14 60:13 61:13 62:14 63:14 64:14 65:14 66:14 67:14 68:14 69:14 70:14 71:14 72:15 73:16 74:15 75:17 76:17 77:18 78:20 79:22 80:25 81:29 82:36 83:34 84:32 85:30 86:28 87:24 88:20 89:16 90:9 99:54 100:61 101:66 102:69 103:72 104:75 105:77 106:79 107:80 108:30 109:26 110:23 111:22 112:21 113:20 114:20 115:19 116:20 117:18 118:18 119:18 120:18 121:18 122:18 123:18 124:18 125:18 126:18 127:19 128:20 129:19 130:20 131:20 132:22 133:24 134:28 135:47 136:78 137:76 138:74 139:72 
-0 0.000140428967186148 0 1.054101635356296e-05 0.0007185574899106207 0 0.0001029569889017795 0 0.0005164028594574433 0.0003503483631123965 0.0001661587254037414 0.0002625551851957031 6:10 7:15 8:20 9:23 10:26 11:28 12:30 13:32 14:33 15:35 16:30 17:24 18:23 19:20 20:19 21:18 22:16 23:16 24:14 25:15 26:15 27:15 28:14 29:14 30:14 31:14 32:14 33:14 34:14 35:14 36:14 37:14 38:14 39:14 40:14 41:14 42:14 43:14 44:14 45:14 46:14 47:14 48:14 49:14 50:14 51:14 52:14 53:14 54:14 55:14 56:14 57:14 58:14 59:14 60:14 61:14 62:14 63:14 64:14 65:14 66:14 67:14 68:14 69:14 70:14 71:14 72:14 73:14 74:14 75:15 76:16 77:16 78:16 79:17 80:19 81:20 82:21 83:24 84:27 85:34 86:34 87:31 88:30 89:28 90:23 91:20 92:18 99:53 100:61 101:66 102:69 103:72 104:75 105:77 106:79 107:32 108:27 109:25 110:23 111:22 112:21 113:21 114:19 115:20 116:19 117:18 118:18 119:18 120:18 121:18 122:18 123:18 124:19 125:19 126:19 127:19 128:19 129:19 130:21 131:23 132:24 133:28 134:77 135:75 136:73 137:70 138:68 139:64 
-0 0 0.004731714521125779 0 0 0 0 0 0 0 0 0 4:13 5:18 6:22 7:26 8:28 9:30 10:32 11:34 12:36 13:28 14:26 15:22 16:22 17:20 18:18 19:20 20:18 21:18 22:18 23:18 24:17 25:17 26:17 27:17 28:17 29:16 30:16 31:16 32:16 33:16 34:16 35:17 36:17 37:17 38:17 39:17 40:18 41:18 42:18 43:18 44:18 45:18 46:18 47:18 48:18 49:18 50:17 51:17 52:18 53:18 54:17 55:18 56:18 57:18 58:17 59:17 60:17 61:18 62:18 63:17 64:17 65:17 66:17 67:17 68:16 69:16 70:18 71:18 72:18 73:18 74:18 75:18 76:19 77:18 78:20 79:20 80:20 81:24 82:24 83:28 84:34 85:36 86:34 87:33 88:31 89:28 90:26 91:22 92:17 93:5 94:39 95:60 96:65 97:69 98:72 99:75 100:77 101:78 102:73 103:33 104:26 105:24 106:22 107:22 108:20 109:20 110:19 111:18 112:19 113:18 114:18 115:17 116:17 117:17 118:17 119:18 120:18 121:18 122:19 123:20 124:20 125:21 126:21 127:21 128:24 129:25 130:32 131:69 132:78 133:76 134:74 135:72 136:69 137:66 138:61 139:38 
-0 0.000245013825363544 0.001260522180266661 0 0.0007943049433036614 0.0002935646456288876 9.372068860094759e-05 0 0.00167046972010502 0.0002429977682207924 6.228513275569992e-05 8.056002798946757e-05 5:10 6:17 7:21 8:24 9:27 10:29 11:32 12:34 13:35 14:32 15:26 16:24 17:22 18:21 19:19 20:18 21:17 22:17 23:16 24:15 25:15 26:15 27:15 28:15 29:15 30:15 31:15 32:15 33:15 34:15 35:15 36:15 37:15 38:15 39:15 40:15 41:15 42:15 43:15 44:15 45:15 46:15 47:15 48:15 49:15 50:15 51:15 52:15 53:15 54:15 55:15 56:14 57:15 58:15 59:14 60:15 61:15 62:15 63:15 64:15 65:15 66:15 67:15 68:15 69:15 70:15 71:15 72:15 73:15 74:15 75:16 76:17 77:18 78:18 79:21 80:22 81:23 82:26 83:32 84:34 85:33 86:31 87:29 88:27 89:23 90:19 91:15 92:7 93:65 94:69 95:72 96:75 97:76 98:78 99:80 100:28 101:25 102:23 103:22 104:21 105:20 106:20 107:19 108:19 109:20 110:19 111:18 112:18 113:18 114:18 115:20 116:19 117:18 118:20 119:20 120:21 121:22 122:23 123:23 124:24 125:29 126:78 127:76 128:74 129:72 130:70 131:66 132:62 133:55 
-0 0 0.003549908731535637 0 0 0 0 0 0 0 0 0 3:15 4:20 5:23 6:27 7:29 8:31 9:34 10:36 11:37 12:34 13:28 14:27 15:24 16:23 17:22 18:22 19:21 20:21 21:21 22:20 23:20 24:20 25:20 26:20 27:20 28:20 29:20 30:20 31:20 32:20 33:20 34:20 35:20 36:20 37:20 38:20 39:20 40:20 41:20 42:20 43:20 44:19 45:19 46:19 47:19 48:19 49:19 50:19 51:19 52:19 53:19 54:19 55:19 56:20 57:19 58:19 59:19 60:20 61:19 62:19 63:19 64:19 65:19 66:19 67:19 68:19 69:19 70:19 71:19 72:20 73:20 74:20 75:20 76:21 77:23 78:24 79:24 80:26 81:26 82:32 83:38 84:38 85:36 86:34 87:32 88:29 89:27 90:25 91:20 92:16 93:61 94:66 95:70 96:73 97:76 98:78 99:79 100:81 101:83 102:57 103:27 104:26 105:25 106:23 107:24 108:22 109:21 110:20 111:20 112:19 113:19 114:19 115:19 116:19 117:20 118:21 119:21 120:21 121:22 122:23 123:23 124:25 125:26 126:29 127:34 128:83 129:81 130:80 131:78 132:76 133:74 134:71 135:67 136:63 137:55 
-0.0001126523646678837 0 0 0.000555449799519763 0 0.0007621869112227649 0 0 0 0 0 0 1:22 2:23 3:26 4:28 5:29 6:31 7:33 8:34 9:35 10:37 11:39 12:32 13:29 14:29 15:27 16:25 17:23 18:24 19:23 20:22 21:22 22:22 23:22 24:21 25:22 26:21 27:21 28:21 29:20 30:20 31:21 32:21 33:22 34:22 35:21 36:21 37:21 38:21 39:21 40:21 41:21 42:21 43:22 44:22 45:22 46:21 47:21 48:21 49:21 50:22 51:22 52:22 53:21 54:22 55:22 56:22 57:22 58:22 59:21 60:21 61:21 62:22 63:21 64:21 65:21 66:21 67:21 68:21 69:22 70:22 71:21 72:21 73:22 74:22 75:21 76:22 77:22 78:24 79:25 80:26 81:28 82:29 83:31 84:35 85:34 86:32 87:31 88:29 89:25 90:23 91:20 92:19 93:61 94:63 95:69 96:72 97:74 98:78 99:80 100:84 101:88 102:88 103:76 104:37 105:33 106:30 107:28 108:26 109:24 110:23 111:22 112:21 113:21 114:20 115:20 116:20 117:20 118:20 119:22 120:22 121:24 122:26 123:27 124:27 125:29 126:43 127:77 128:84 129:83 130:81 131:79 132:76 133:73 134:71 135:68 136:61 137:30 
-0.0001574663177172947 0 0 0 0 0 0 0 0 0 0 0 1:10 2:12 3:11 4:21 5:23 6:22 7:25 8:27 9:30 10:32 11:34 12:36 13:30 14:26 15:23 16:22 17:20 18:20 19:18 20:17 21:17 22:17 23:16 24:16 25:16 26:16 27:16 28:16 29:16 30:16 31:16 32:16 33:16 34:16 35:16 36:16 37:16 38:16 39:16 40:16 41:16 42:16 43:16 44:16 45:16 46:16 47:16 48:15 49:15 50:15 51:15 52:15 53:15 54:15 55:15 56:15 57:15 58:15 59:15 60:15 61:15 62:15 63:15 64:15 65:15 66:15 67:15 68:15 69:15 70:15 71:16 72:16 73:16 74:18 75:19 76:20 77:21 78:23 79:25 80:30 81:36 82:34 83:33 84:31 85:29 86:26 87:24 88:19 89:14 93:67 94:72 95:74 96:76 97:77 98:79 99:59 100:32 101:30 102:26 103:25 104:22 105:20 106:20 107:19 108:20 109:20 110:18 111:18 112:18 113:18 114:18 115:18 116:18 117:19 118:20 119:19 120:20 121:21 122:20 123:22 124:24 125:26 126:30 127:77 128:76 129:74 130:71 131:69 132:66 133:62 134:58 135:50 
-0 0 0 0 0 0 0 0.001563913938814847 0 0 0 1.093003160962279e-05 4:12 5:18 6:22 7:26 8:28 9:31 10:33 11:34 12:26 13:24 14:21 15:21 16:19 17:19 18:19 19:17 20:17 21:17 22:16 23:17 24:17 25:17 26:17 27:17 28:17 29:17 30:17 31:17 32:17 33:17 34:17 35:17 36:16 37:16 38:17 39:16 40:16 41:16 42:16 43:16 44:16 45:16 46:16 47:17 48:17 49:16 50:17 51:17 52:17 53:17 54:17 55:17 56:17 57:17 58:17 59:17 60:17 61:18 62:17 63:17 64:17 65:17 66:17 67:17 68:17 69:17 70:19 71:19 72:20 73:22 74:22 75:22 76:23 77:26 78:33 79:34 80:33 81:31 82:29 83:26 84:23 85:20 86:14 87:4 96:14 97:54 98:60 99:63 100:66 101:68 102:71 103:73 104:75 105:49 106:26 107:24 108:23 109:21 110:19 111:18 112:19 113:17 114:17 115:17 116:18 117:18 118:17 119:17 120:16 121:17 122:17 123:18 124:18 125:18 126:19 127:19 128:21 129:22 130:25 131:28 132:74 133:73 134:71 135:68 136:66 137:62 138:59 139:54 
-0 0 0 0 0 0 0 0.001784745023395386 0 0 0 0 1:14 2:17 3:23 4:26 5:30 6:32 7:33 8:35 9:37 10:33 11:28 12:25 13:24 14:22 15:21 16:21 17:20 18:19 19:18 20:19 21:19 22:19 23:19 24:19 25:19 26:18 27:18 28:18 29:18 30:17 31:17 32:18 33:18 34:18 35:18 36:18 37:18 38:18 39:18 40:18 41:18 42:18 43:18 44:18 45:18 46:17 47:17 48:17 49:17 50:17 51:17 52:17 53:17 54:18 55:18 56:17 57:17 58:17 59:17 60:18 61:18 62:18 63:17 64:17 65:18 66:20 67:20 68:20 69:20 70:19 71:19 72:19 73:21 74:22 75:23 76:23 77:25 78:25 79:28 80:33 81:38 82:36 83:35 84:33 85:30 86:28 87:26 88:23 89:19 90:15 91:7 93:24 94:60 95:65 96:70 97:73 98:76 99:78 100:79 101:81 102:50 103:30 104:28 105:26 106:24 107:22 108:21 109:21 110:21 111:21 112:21 113:20 114:20 115:20 116:20 117:20 118:22 119:21 120:21 121:23 122:23 123:24 124:25 125:26 126:27 127:30 128:39 129:80 130:79 131:79 132:76 133:74 134:72 135:68 136:62 137:55 138:6 
-0 0 0.002299393471095997 0 0 0 0 0 0.0004291564467790986 0 0 0 4:2 5:15 6:19 7:23 8:26 9:29 10:31 11:33 12:35 13:36 14:29 15:26 16:23 17:22 18:21 19:19 20:20 21:19 22:19 23:18 24:18 25:17 26:17 27:17 28:18 29:18 30:18 31:17 32:17 33:17 34:17 35:17 36:17 37:17 38:17 39:17 40:17 41:17 42:17 43:17 44:17 45:17 46:17 47:17 48:17 49:17 50:17 51:17 52:16 53:17 54:17 55:16 56:16 57:16 58:17 59:17 60:16 61:16 62:16 63:16 64:16 65:16 66:17 67:17 68:17 69:16 70:16 71:17 72:17 73:17 74:17 75:18 76:18 77:18 78:20 79:22 80:22 81:24 82:25 83:27 84:37 85:35 86:33 87:31 88:29 89:26 90:23 91:19 92:14 93:59 94:64 95:68 96:71 97:73 98:75 99:77 100:79 101:62 102:27 103:25 104:23 105:22 106:21 107:21 108:20 109:19 110:19 111:18 112:18 113:18 114:18 115:18 116:18 117:19 118:19 119:18 120:20 121:19 122:21 123:22 124:22 125:23 126:24 127:26 128:37 129:79 130:77 131:75 132:73 133:69 134:67 135:63 136:56 137:3 
-0 1.942815114359397e-05 0 0.00104937010593068 0 0 5.427803471353552e-05 0 0 2.943651554898303e-05 5.182905287583383e-05 0 4:13 5:19 6:23 7:27 8:31 9:33 10:35 11:37 12:39 13:41 14:42 15:42 16:42 17:43 18:41 19:36 20:33 21:31 22:29 23:28 24:27 25:26 26:25 27:24 28:24 29:25 30:25 31:25 32:25 33:23 34:23 35:24 36:24 37:24 38:24 39:24 40:24 41:24 42:23 43:22 44:21 45:21 46:21 47:21 48:31 49:33 50:31 51:26 52:24 53:24 54:24 55:26 56:28 57:26 58:25 59:22 60:24 61:26 62:26 63:26 64:29 65:30 66:28 67:24 68:21 69:21 70:21 71:22 72:22 73:23 74:25 75:26 76:27 77:31 78:33 79:39 80:38 81:36 82:34 83:31 84:29 85:26 86:23 87:16 88:9 95:17 96:57 97:61 98:65 99:68 100:70 101:72 102:74 103:76 104:77 105:78 106:79 107:60 108:45 109:34 110:29 111:29 112:29 113:31 114:26 115:24 116:27 117:28 118:29 119:28 120:26 121:28 122:33 123:31 124:34 125:33 126:33 127:40 128:46 129:73 130:80 131:78 132:77 133:75 134:75 135:73 136:71 137:69 138:67 139:65 
-0 0 0.002029940626218189 0 0 0 0 0 0.000108566490154231 0 0 0 5:11 6:18 7:22 8:26 9:28 10:30 11:31 12:33 13:35 14:27 15:24 16:22 17:21 18:20 19:20 20:18 21:18 22:18 23:18 24:18 25:18 26:18 27:17 28:16 29:16 30:16 31:16 32:17 33:17 34:17 35:17 36:17 37:17 38:17 39:17 40:17 41:17 42:17 43:17 44:17 45:17 46:17 47:17 48:17 49:17 50:17 51:17 52:17 53:18 54:18 55:18 56:18 57:18 58:18 59:18 60:18 61:18 62:18 63:18 64:18 65:18 66:18 67:18 68:18 69:18 70:18 71:18 72:18 73:18 74:17 75:18 76:18 77:20 78:19 79:20 80:23 81:24 82:26 83:31 84:35 85:33 86:31 87:29 88:27 89:23 90:20 91:15 92:7 94:53 95:60 96:65 97:68 98:71 99:73 100:76 101:78 102:76 103:28 104:25 105:23 106:22 107:21 108:20 109:20 110:19 111:18 112:18 113:18 114:18 115:18 116:18 117:18 118:18 119:19 120:17 121:18 122:19 123:20 124:20 125:21 126:21 127:23 128:25 129:31 130:77 131:75 132:73 133:71 134:69 135:66 136:62 137:56 138:21 
-0 0 0 0 0 0 0 0.0005863294511765059 0 0 0 0 8:12 9:18 10:23 11:26 12:29 13:31 14:33 15:35 16:26 17:23 18:22 19:20 20:20 21:18 22:19 23:18 24:17 25:16 26:16 27:17 28:17 29:18 30:18 31:18 32:18 33:18 34:18 35:18 36:18 37:18 38:18 39:18 40:18 41:18 42:18 43:18 44:18 45:18 46:18 47:18 48:18 49:18 50:18 51:18 52:18 53:18 54:18 55:18 56:18 57:18 58:18 59:18 60:18 61:18 62:18 63:18 64:18 65:18 66:18 67:18 68:18 69:18 70:18 71:17 72:16 73:17 74:18 75:18 76:19 77:19 78:20 79:21 80:24 81:26 82:30 83:34 84:32 85:30 86:27 87:24 88:20 89:15 90:7 94:42 95:55 96:59 97:63 98:66 99:69 100:71 101:73 102:74 103:27 104:24 105:21 106:20 107:19 108:18 109:18 110:17 111:17 112:16 113:16 114:16 115:16 116:16 117:16 118:17 119:17 120:16 121:17 122:17 123:17 124:18 125:19 126:19 127:22 128:22 129:26 130:74 131:72 132:70 133:68 134:65 135:63 136:59 137:54 138:45 
-0 -0 0 0.0006265969031392061 0 0 4.373424096808355e-05 0 0 0 0 0 4:5 5:8 6:10 7:13 8:15 9:16 10:17 11:18 12:18 13:18 14:16 15:16 16:16 17:16 18:16 19:15 20:15 21:14 22:14 23:14 24:14 25:14 26:13 27:13 28:13 29:13 30:13 31:13 32:12 33:12 34:23 35:28 36:30 37:33 38:34 39:35 40:37 41:38 42:39 43:40 44:42 45:42 46:36 47:32 48:29 49:28 50:26 51:25 52:25 53:23 54:23 55:23 56:23 57:22 58:23 59:23 60:23 61:23 62:22 63:23 64:23 65:23 66:23 67:23 68:22 69:22 70:22 71:22 72:22 73:23 74:24 75:25 76:27 77:29 78:30 79:35 80:40 81:38 82:37 83:36 84:34 85:32 86:30 87:27 88:24 89:20 90:16 91:4 93:34 94:40 95:44 96:49 97:53 98:56 99:59 100:62 101:64 102:66 103:67 104:50 105:49 106:48 107:48 108:48 109:46 110:44 111:44 112:42 113:42 114:42 115:40 116:40 117:39 118:38 119:40 120:39 121:39 122:39 123:40 124:39 125:41 126:58 127:55 128:50 129:48 130:46 131:44 132:42 133:39 134:37 135:32 136:27 137:17 
-0.0003920583453953 -3.213474260022753e-05 0 0 0 0 0 0 0.0001942612840962189 0 0 0 2:2 3:6 4:8 5:11 6:13 7:14 8:15 9:15 10:14 11:13 12:13 13:13 14:13 15:13 16:12 17:12 18:12 19:12 20:12 21:12 22:11 23:12 24:11 25:11 26:11 27:11 28:11 29:11 30:11 31:10 32:11 33:11 34:25 35:28 36:30 37:32 38:34 39:35 40:36 41:38 42:38 43:37 44:31 45:29 46:26 47:25 48:24 49:22 50:21 51:21 52:21 53:20 54:20 55:19 56:19 57:19 58:19 59:19 60:19 61:19 62:19 63:18 64:18 65:19 66:19 67:19 68:19 69:20 70:20 71:20 72:20 73:20 74:21 75:20 76:22 77:23 78:24 79:27 80:30 81:37 82:36 83:34 84:32 85:30 86:28 87:26 88:23 89:20 90:14 91:7 93:28 94:37 95:43 96:48 97:51 98:55 99:58 100:61 101:64 102:61 103:48 104:45 105:45 106:45 107:44 108:42 109:40 110:39 111:37 112:37 113:36 114:35 115:35 116:34 117:34 118:33 119:33 120:34 121:34 122:31 123:32 124:31 125:31 126:31 127:40 128:49 129:47 130:45 131:43 132:40 133:37 134:33 135:29 136:23 
-0 -0 0 0 0 0.0001498165118692801 0 0 0 0 0 0 2:5 3:7 4:9 5:11 6:13 7:16 8:18 9:19 10:19 11:19 12:19 13:19 14:18 15:18 16:17 17:17 18:17 19:17 20:16 21:16 22:15 23:15 24:16 25:15 26:15 27:14 28:14 29:14 30:14 31:14 32:13 33:13 34:26 35:28 36:31 37:33 38:35 39:36 40:37 41:39 42:40 43:41 44:42 45:42 46:40 47:34 48:31 49:29 50:27 51:25 52:25 53:24 54:25 55:23 56:23 57:23 58:23 59:23 60:23 61:23 62:23 63:23 64:23 65:23 66:23 67:23 68:23 69:23 70:23 71:24 72:25 73:24 74:25 75:25 76:27 77:28 78:29 79:30 80:33 81:40 82:40 83:38 84:36 85:35 86:33 87:31 88:28 89:26 90:22 91:18 92:12 93:19 94:31 95:38 96:44 97:49 98:53 99:57 100:61 101:64 102:65 103:68 104:71 105:56 106:52 107:51 108:51 109:50 110:49 111:48 112:48 113:46 114:45 115:43 116:43 117:42 118:42 119:43 120:43 121:42 122:43 123:41 124:42 125:41 126:40 127:42 128:43 129:57 130:54 131:49 132:47 133:45 134:43 135:41 136:39 137:35 138:30 139:23 
-0 -0 4.322155410727971e-05 0 0 0 0 0.0001935683822989758 0 0 0 0 2:4 3:6 4:7 5:9 6:11 7:13 8:15 9:17 10:17 11:17 12:17 13:17 14:16 15:15 16:15 17:15 18:14 19:14 20:13 21:13 22:13 23:13 24:13 25:12 26:13 27:12 28:12 29:12 30:12 31:12 32:12 33:12 34:12 35:26 36:29 37:30 38:33 39:34 40:36 41:37 42:38 43:40 44:41 45:41 46:36 47:31 48:29 49:27 50:26 51:24 52:24 53:23 54:23 55:22 56:22 57:22 58:22 59:22 60:22 61:22 62:22 63:22 64:22 65:22 66:22 67:22 68:22 69:22 70:22 71:22 72:22 73:22 74:23 75:24 76:24 77:25 78:26 79:27 80:29 81:33 82:40 83:38 84:37 85:35 86:33 87:31 88:29 89:26 90:22 91:19 92:14 93:28 94:36 95:43 96:48 97:52 98:55 99:58 100:61 101:64 102:67 103:69 104:50 105:49 106:49 107:47 108:48 109:46 110:43 111:42 112:41 113:39 114:39 115:38 116:38 117:38 118:39 119:39 120:38 121:39 122:37 123:37 124:35 125:34 126:34 127:35 128:52 129:49 130:49 131:47 132:45 133:43 134:41 135:37 136:34 137:30 138:24 
-0 -0.0001323324075007464 0 0 0 0 0 0 0 0 0 0 4:3 5:6 6:8 7:11 8:13 9:14 10:16 11:16 12:15 13:15 14:15 15:15 16:14 17:14 18:13 19:13 20:13 21:12 22:12 23:13 24:12 25:12 26:12 27:12 28:11 29:11 30:11 31:11 32:11 33:11 34:10 35:10 36:22 37:27 38:30 39:32 40:34 41:35 42:36 43:37 44:39 45:40 46:32 47:29 48:27 49:26 50:24 51:23 52:21 53:21 54:20 55:19 56:19 57:19 58:20 59:20 60:20 61:20 62:20 63:19 64:20 65:20 66:20 67:20 68:20 69:20 70:20 71:20 72:19 73:19 74:20 75:22 76:23 77:22 78:25 79:28 80:30 81:34 82:38 83:37 84:35 85:33 86:31 87:29 88:26 89:23 90:18 91:7 94:8 95:29 96:36 97:42 98:46 99:51 100:54 101:57 102:60 103:63 104:47 105:43 106:45 107:43 108:45 109:41 110:42 111:40 112:39 113:38 114:37 115:35 116:35 117:33 118:33 119:32 120:32 121:34 122:34 123:33 124:35 125:35 126:34 127:34 128:35 129:54 130:49 131:47 132:45 133:43 134:41 135:39 136:35 137:31 138:26 139:5 
-0 -0 0 0 0.0007452424580960352 0 0 0 0 0 0 0 2:1 3:5 4:7 5:9 6:10 7:12 8:13 9:15 10:15 11:14 12:14 13:13 14:13 15:14 16:14 17:14 18:14 19:14 20:14 21:14 22:13 23:13 24:13 25:13 26:14 27:13 28:12 29:12 30:11 31:12 32:12 33:12 34:13 35:25 36:30 37:31 38:32 39:33 40:34 41:36 42:37 43:38 44:39 45:39 46:31 47:27 48:26 49:23 50:22 51:21 52:20 53:20 54:18 55:17 56:18 57:17 58:19 59:19 60:18 61:18 62:18 63:18 64:18 65:18 66:18 67:18 68:19 69:17 70:17 71:17 72:18 73:20 74:19 75:20 76:20 77:21 78:21 79:23 80:26 81:29 82:37 83:37 84:36 85:34 86:32 87:30 88:27 89:24 90:20 91:17 92:11 93:40 94:47 95:52 96:54 97:60 98:62 99:64 100:68 101:52 102:49 103:48 104:46 105:46 106:44 107:43 108:42 109:40 110:40 111:38 112:38 113:36 114:36 115:37 116:36 117:36 118:38 119:36 120:34 121:35 122:33 123:33 124:33 125:40 126:50 127:48 128:47 129:45 130:43 131:41 132:35 133:30 134:25 135:10 
-0 -0.0003829590173281032 0 0 0.0001941645161294363 0.0004969427715889754 0 0 0 0 0 0 4:7 5:9 6:10 7:13 8:14 9:15 10:15 11:15 12:15 13:15 14:13 15:13 16:14 17:14 18:12 19:13 20:12 21:12 22:13 23:12 24:12 25:12 26:11 27:12 28:11 29:11 30:11 31:12 32:11 33:12 34:12 35:26 36:28 37:29 38:31 39:34 40:36 41:37 42:38 43:38 44:39 45:40 46:31 47:28 48:24 49:23 50:21 51:21 52:20 53:18 54:19 55:17 56:18 57:17 58:17 59:18 60:19 61:21 62:20 63:18 64:16 65:17 66:17 67:18 68:17 69:17 70:19 71:19 72:17 73:17 74:19 75:20 76:20 77:20 78:23 79:24 80:25 81:28 82:34 83:36 84:36 85:34 86:32 87:29 88:28 89:25 90:21 91:16 92:7 93:40 94:42 95:48 96:54 97:57 98:60 99:65 100:64 101:52 102:46 103:44 104:44 105:43 106:44 107:44 108:38 109:39 110:39 111:37 112:37 113:36 114:37 115:38 116:35 117:35 118:36 119:34 120:35 121:34 122:33 123:32 124:30 125:31 126:44 127:50 128:47 129:46 130:44 131:41 132:37 133:34 134:30 135:20 136:4 
-0 -0 0 0 0 0 0.0002038174958464234 0 0.0004587378876401472 0.0003278324041207122 0 0 5:6 6:9 7:11 8:13 9:15 10:15 11:16 12:16 13:16 14:15 15:14 16:14 17:14 18:14 19:13 20:13 21:13 22:12 23:13 24:13 25:12 26:12 27:12 28:11 29:12 30:11 31:12 32:12 33:11 34:14 35:26 36:30 37:32 38:33 39:35 40:36 41:38 42:39 43:40 44:40 45:32 46:28 47:26 48:24 49:23 50:22 51:21 52:20 53:20 54:19 55:19 56:19 57:19 58:19 59:18 60:19 61:19 62:19 63:19 64:19 65:19 66:19 67:20 68:20 69:20 70:20 71:21 72:21 73:22 74:24 75:25 76:26 77:27 78:30 79:37 80:35 81:33 82:32 83:30 84:27 85:25 86:20 87:15 88:9 93:35 94:42 95:46 96:50 97:53 98:56 99:60 100:62 101:65 102:53 103:48 104:45 105:44 106:45 107:44 108:39 109:39 110:37 111:36 112:37 113:35 114:35 115:34 116:34 117:33 118:32 119:32 120:32 121:31 122:32 123:31 124:30 125:31 126:46 127:45 128:45 129:43 130:40 131:38 132:36 133:32 134:28 135:23 
-0 -0 0 0.000221839159467855 0 0 0 0 0 0 0 0 3:4 4:6 5:9 6:11 7:12 8:15 9:17 10:18 11:18 12:18 13:18 14:18 15:17 16:16 17:16 18:16 19:15 20:15 21:14 22:14 23:14 24:13 25:14 26:14 27:13 28:13 29:13 30:13 31:13 32:13 33:13 34:13 35:22 36:29 37:31 38:34 39:35 40:36 41:38 42:39 43:40 44:40 45:41 46:33 47:30 48:29 49:27 50:25 51:25 52:24 53:23 54:23 55:21 56:21 57:21 58:21 59:21 60:21 61:21 62:21 63:21 64:21 65:21 66:22 67:21 68:21 69:21 70:21 71:21 72:23 73:23 74:23 75:24 76:25 77:26 78:27 79:29 80:32 81:37 82:36 83:34 84:32 85:29 86:27 87:24 88:21 89:13 90:1 94:1 95:24 96:32 97:39 98:43 99:48 100:52 101:55 102:57 103:60 104:62 105:65 106:49 107:47 108:46 109:45 110:46 111:45 112:44 113:42 114:39 115:38 116:39 117:38 118:37 119:37 120:37 121:37 122:37 123:38 124:36 125:37 126:37 127:37 128:38 129:41 130:54 131:51 132:46 133:44 134:42 135:40 136:38 137:34 138:31 139:29 
-0.0007023367500847941 -0 0 0.001236987977612788 0 0 0 0 0 0 0.000566572958649204 0 1:3 2:6 3:8 4:10 5:12 6:14 7:15 8:16 9:17 10:17 11:15 12:15 13:15 14:14 15:13 16:13 17:13 18:13 19:13 20:13 21:12 22:12 23:12 24:12 25:11 26:11 27:11 28:11 29:11 30:10 31:10 32:10 33:21 34:29 35:30 36:31 37:34 38:35 39:36 40:37 41:39 42:39 43:34 44:31 45:29 46:26 47:24 48:24 49:22 50:23 51:22 52:21 53:21 54:21 55:21 56:21 57:21 58:21 59:21 60:21 61:21 62:21 63:20 64:20 65:21 66:21 67:21 68:20 69:20 70:21 71:22 72:23 73:22 74:24 75:24 76:25 77:29 78:32 79:37 80:35 81:34 82:33 83:31 84:28 85:25 86:22 87:18 88:9 95:25 96:33 97:37 98:43 99:47 100:52 101:56 102:59 103:62 104:64 105:48 106:45 107:45 108:43 109:45 110:42 111:41 112:40 113:38 114:36 115:35 116:35 117:35 118:35 119:34 120:33 121:35 122:34 123:36 124:37 125:36 126:36 127:37 128:39 129:54 130:50 131:47 132:45 133:43 134:40 135:38 136:34 137:31 138:26 139:16 
-0 -0 0 0 0 0.001230646445107922 0 0 0 0 0 0 1:1 2:3 3:7 4:9 5:13 6:15 7:16 8:17 9:17 10:16 11:16 12:16 13:16 14:16 15:15 16:16 17:16 18:15 19:14 20:14 21:13 22:13 23:13 24:13 25:13 26:13 27:13 28:12 29:13 30:14 31:13 32:13 33:14 34:14 35:21 36:28 37:33 38:35 39:37 40:37 41:39 42:40 43:41 44:42 45:42 46:39 47:33 48:29 49:29 50:27 51:26 52:26 53:26 54:24 55:23 56:24 57:24 58:23 59:23 60:24 61:24 62:23 63:25 64:25 65:23 66:24 67:25 68:26 69:24 70:24 71:24 72:24 73:25 74:25 75:27 76:27 77:30 78:30 79:30 80:34 81:41 82:39 83:37 84:35 85:34 86:33 87:31 88:29 89:27 90:23 91:18 92:15 93:33 94:41 95:46 96:51 97:57 98:59 99:62 100:65 101:67 102:69 103:71 104:66 105:55 106:53 107:51 108:51 109:51 110:44 111:42 112:42 113:41 114:40 115:40 116:40 117:39 118:40 119:40 120:38 121:37 122:40 123:39 124:40 125:42 126:48 127:55 128:53 129:48 130:48 131:46 132:43 133:41 134:39 135:36 136:31 137:25 138:20 139:3 
-0 -0 0.0009412834790264257 0 0 0 0 2.963414163842729e-05 0 0 0 0 5:6 6:9 7:11 8:13 9:14 10:16 11:17 12:17 13:17 14:17 15:16 16:15 17:15 18:15 19:15 20:14 21:14 22:14 23:14 24:14 25:14 26:14 27:14 28:14 29:13 30:13 31:13 32:13 33:13 34:13 35:18 36:27 37:29 38:32 39:34 40:36 41:37 42:37 43:38 44:40 45:39 46:33 47:29 48:28 49:26 50:26 51:25 52:26 53:24 54:24 55:25 56:24 57:23 58:24 59:24 60:22 61:23 62:22 63:21 64:21 65:22 66:22 67:23 68:23 69:22 70:21 71:22 72:23 73:23 74:24 75:24 76:25 77:25 78:26 79:28 80:32 81:38 82:39 83:37 84:35 85:33 86:31 87:29 88:25 89:21 90:17 91:9 93:8 94:32 95:39 96:44 97:50 98:53 99:56 100:59 101:62 102:64 103:67 104:59 105:50 106:48 107:48 108:47 109:47 110:43 111:42 112:42 113:41 114:40 115:38 116:37 117:34 118:35 119:35 120:34 121:34 122:33 123:32 124:33 125:33 126:35 127:36 128:49 129:49 130:48 131:47 132:44 133:42 134:40 135:37 136:35 137:31 138:25 139:16 
-0 -0 0 0 0 0 0 0 0.000209299047884175 0 0 0 8:4 9:7 10:9 11:12 12:14 13:15 14:16 15:16 16:16 17:16 18:15 19:15 20:15 21:15 22:14 23:14 24:13 25:13 26:12 27:12 28:13 29:12 30:12 31:12 32:12 33:12 34:12 35:11 36:11 37:12 38:12 39:20 40:28 41:31 42:34 43:35 44:36 45:37 46:39 47:40 48:40 49:33 50:29 51:27 52:26 53:23 54:22 55:22 56:22 57:20 58:20 59:20 60:20 61:20 62:20 63:20 64:20 65:21 66:21 67:20 68:20 69:19 70:21 71:20 72:20 73:20 74:20 75:20 76:22 77:22 78:21 79:23 80:24 81:25 82:27 83:31 84:36 85:35 86:33 87:31 88:29 89:26 90:22 91:18 92:15 93:31 94:38 95:43 96:47 97:51 98:54 99:57 100:60 101:62 102:64 103:48 104:46 105:45 106:44 107:45 108:41 109:39 110:38 111:37 112:36 113:34 114:33 115:34 116:34 117:34 118:33 119:33 120:32 121:32 122:32 123:30 124:29 125:29 126:30 127:47 128:47 129:45 130:43 131:41 132:39 133:35 134:33 135:29 136:23 137:3 
-0.0001479306922132747 -0 0 0.0006734379626069573 0 0 0 0.0004038332135794823 0 0 0 0 1:3 2:5 3:6 4:9 5:12 6:14 7:15 8:16 9:17 10:18 11:18 12:18 13:17 14:17 15:15 16:15 17:15 18:15 19:14 20:14 21:14 22:13 23:13 24:13 25:13 26:13 27:12 28:13 29:12 30:12 31:12 32:12 33:12 34:12 35:23 36:29 37:33 38:35 39:36 40:36 41:38 42:39 43:40 44:41 45:41 46:42 47:33 48:31 49:28 50:27 51:26 52:24 53:24 54:23 55:22 56:22 57:22 58:22 59:22 60:21 61:22 62:23 63:23 64:22 65:21 66:21 67:21 68:22 69:23 70:23 71:23 72:23 73:23 74:22 75:23 76:24 77:25 78:27 79:29 80:31 81:35 82:40 83:38 84:36 85:35 86:33 87:31 88:29 89:27 90:23 91:19 92:13 93:8 94:29 95:34 96:42 97:46 98:51 99:54 100:57 101:61 102:64 103:66 104:63 105:49 106:47 107:47 108:47 109:47 110:47 111:46 112:43 113:41 114:40 115:40 116:38 117:39 118:38 119:38 120:39 121:38 122:39 123:41 124:42 125:41 126:43 127:41 128:44 129:61 130:58 131:54 132:47 133:44 134:42 135:40 136:38 137:34 138:29 139:22 
-0 -0 0 0.0001387002763054093 0 0 0 0 0 0 0 4.477633734013896e-05 1:7 2:10 3:12 4:13 5:14 6:15 7:14 8:14 9:14 10:14 11:14 12:14 13:14 14:14 15:14 16:13 17:14 18:14 19:13 20:13 21:13 22:13 23:13 24:13 25:13 26:13 27:13 28:13 29:12 30:13 31:12 32:12 33:12 34:13 35:12 36:11 37:12 38:13 39:25 40:30 41:32 42:33 43:35 44:37 45:37 46:39 47:39 48:39 49:40 50:36 51:31 52:28 53:26 54:25 55:25 56:23 57:23 58:22 59:22 60:20 61:20 62:20 63:20 64:20 65:20 66:20 67:20 68:21 69:22 70:22 71:22 72:22 73:22 74:24 75:25 76:26 77:28 78:29 79:35 80:38 81:36 82:34 83:32 84:30 85:28 86:25 87:22 88:18 89:12 90:5 96:14 97:20 98:32 99:37 100:42 101:46 102:50 103:53 104:56 105:59 106:62 107:55 108:50 109:50 110:50 111:48 112:48 113:47 114:46 115:43 116:44 117:42 118:41 119:42 120:42 121:41 122:40 123:41 124:42 125:40 126:41 127:40 128:41 129:43 130:47 131:52 132:49 133:45 134:40 135:38 136:35 137:30 138:27 139:24 
-0 -0.0003982217232639409 0 0 0.0001907501993899928 0 0 0 0 0 0 0 4:3 5:6 6:9 7:11 8:12 9:14 10:15 11:15 12:14 13:14 14:14 15:14 16:14 17:14 18:14 19:14 20:14 21:14 22:13 23:14 24:13 25:13 26:13 27:13 28:12 29:13 30:12 31:12 32:12 33:13 34:13 35:12 36:13 37:13 38:12 39:13 40:12 41:12 42:12 43:11 44:12 45:24 46:28 47:30 48:31 49:32 50:35 51:36 52:38 53:38 54:39 55:40 56:34 57:30 58:27 59:25 60:25 61:25 62:23 63:22 64:21 65:22 66:22 67:20 68:20 69:20 70:20 71:20 72:20 73:20 74:20 75:20 76:21 77:21 78:22 79:22 80:23 81:22 82:24 83:25 84:27 85:28 86:30 87:39 88:37 89:37 90:35 91:33 92:30 95:16 96:25 97:34 98:38 99:46 100:50 101:53 102:57 103:59 104:60 105:53 106:48 107:46 108:46 109:45 110:46 111:43 112:40 113:40 114:40 115:37 116:37 117:35 118:36 119:35 120:35 121:34 122:35 123:36 124:37 125:38 126:38 127:39 128:39 129:44 130:52 131:50 132:47 133:43 134:39 135:36 136:33 137:31 138:25 139:20 
-0 -0 0 0 0.000127380383488688 0 0.0001275256462499326 0 0.0004080198846695226 0 0 0.0004773852879551157 10:5 11:8 12:10 13:12 14:13 15:14 16:15 17:15 18:15 19:15 20:15 21:15 22:14 23:14 24:14 25:14 26:13 27:14 28:13 29:13 30:14 31:13 32:12 33:13 34:13 35:12 36:13 37:13 38:13 39:13 40:13 41:12 42:13 43:12 44:12 45:12 46:11 47:12 48:17 49:27 50:29 51:31 52:34 53:35 54:37 55:38 56:39 57:40 58:34 59:29 60:27 61:26 62:24 63:25 64:23 65:22 66:21 67:23 68:23 69:20 70:20 71:20 72:20 73:20 74:20 75:20 76:21 77:21 78:22 79:22 80:23 81:22 82:23 83:25 84:26 85:28 86:30 87:39 88:37 89:36 90:34 91:31 92:29 93:14 94:23 95:32 96:36 97:41 98:46 99:49 100:53 101:56 102:57 103:52 104:46 105:45 106:43 107:43 108:44 109:40 110:38 111:38 112:37 113:35 114:35 115:34 116:34 117:33 118:33 119:33 120:32 121:33 122:34 123:35 124:34 125:36 126:37 127:42 128:49 129:47 130:43 131:37 132:36 133:34 134:31 135:27 136:23 137:18 138:2 
-0 -8.734687397167316e-05 0.000127299736357684 0 0 0 0 0.0003592989657570679 0 0 0 0 6:2 7:5 8:8 9:11 10:13 11:14 12:15 13:16 14:16 15:14 16:14 17:14 18:15 19:15 20:14 21:15 22:15 23:14 24:14 25:14 26:14 27:14 28:14 29:13 30:14 31:14 32:14 33:14 34:13 35:13 36:13 37:12 38:13 39:13 40:13 41:13 42:12 43:12 44:12 45:13 46:22 47:28 48:28 49:30 50:33 51:34 52:35 53:38 54:39 55:39 56:40 57:37 58:31 59:29 60:27 61:25 62:25 63:24 64:24 65:24 66:23 67:22 68:22 69:21 70:21 71:21 72:21 73:20 74:20 75:21 76:22 77:22 78:21 79:23 80:23 81:24 82:24 83:26 84:27 85:28 86:30 87:40 88:38 89:38 90:36 91:34 92:32 93:19 94:26 95:33 96:39 97:45 98:48 99:52 100:55 101:57 102:60 103:55 104:50 105:46 106:46 107:45 108:45 109:44 110:42 111:41 112:40 113:38 114:37 115:37 116:37 117:36 118:36 119:35 120:34 121:35 122:34 123:37 124:38 125:38 126:40 127:41 128:51 129:48 130:47 131:44 132:39 133:37 134:34 135:31 136:28 137:22 138:11 
-0 -0 0 0 0.000909997941766937 0 0 0 0 0.0007518870169477661 0.0006871723460856492 0.0001965169619739598 1:12 2:10 3:8 4:1 5:2 6:5 7:8 8:11 9:13 10:15 11:15 12:14 13:14 14:14 15:14 16:14 17:14 18:14 19:14 20:14 21:14 22:13 23:13 24:12 25:13 26:13 27:12 28:12 29:12 30:12 31:13 32:12 33:13 34:12 35:11 36:12 37:11 38:12 39:11 40:12 41:11 42:11 43:12 44:17 45:28 46:31 47:32 48:34 49:36 50:37 51:38 52:40 53:40 54:35 55:30 56:27 57:24 58:23 59:21 60:20 61:19 62:18 63:18 64:17 65:16 66:16 67:17 68:17 69:16 70:16 71:17 72:17 73:16 74:17 75:18 76:18 77:20 78:19 79:21 80:23 81:24 82:27 83:32 84:38 85:36 86:34 87:32 88:30 89:28 90:26 91:22 92:18 98:4 99:20 100:29 101:34 102:40 103:43 104:47 105:50 106:53 107:58 108:62 109:54 110:52 111:50 112:51 113:50 114:50 115:45 116:44 117:42 118:40 119:37 120:36 121:36 122:36 123:36 124:37 125:37 126:36 127:37 128:38 129:39 130:37 131:37 132:39 133:42 134:49 135:46 136:42 137:38 138:35 139:33 
-0 -0 0 0 0 0 0.0002886529225289664 0 0 0 0 0 1:7 2:9 3:11 4:13 5:14 6:14 7:14 8:13 9:13 10:14 11:14 12:13 13:13 14:13 15:13 16:13 17:13 18:12 19:13 20:12 21:12 22:13 23:12 24:12 25:12 26:11 27:12 28:11 29:12 30:11 31:12 32:11 33:11 34:11 35:11 36:10 37:11 38:11 39:17 40:27 41:29 42:31 43:32 44:35 45:36 46:37 47:37 48:39 49:39 50:32 51:28 52:25 53:24 54:23 55:22 56:21 57:20 58:20 59:19 60:19 61:18 62:18 63:18 64:18 65:18 66:18 67:18 68:18 69:19 70:20 71:20 72:19 73:21 74:23 75:25 76:25 77:27 78:31 79:37 80:35 81:33 82:33 83:31 84:28 85:26 86:23 87:19 88:15 89:9 93:28 94:35 95:40 96:44 97:49 98:53 99:56 100:59 101:61 102:54 103:49 104:50 105:49 106:49 107:46 108:43 109:44 110:41 111:41 112:41 113:41 114:40 115:39 116:39 117:38 118:38 119:37 120:37 121:36 122:37 123:37 124:37 125:42 126:46 127:42 128:40 129:38 130:35 131:32 132:28 133:24 134:17 
-0 -0 0 0 0 0 0.0004956630944213016 0 0 0.0004951525354092346 0 0.0004455794815266312 4:3 5:5 6:8 7:11 8:13 9:14 10:13 11:13 12:13 13:13 14:13 15:13 16:13 17:13 18:13 19:13 20:13 21:12 22:12 23:12 24:12 25:12 26:13 27:12 28:11 29:12 30:12 31:11 32:12 33:11 34:11 35:11 36:11 37:11 38:11 39:11 40:11 41:18 42:26 43:29 44:30 45:30 46:30 47:30 48:32 49:36 50:36 51:30 52:29 53:26 54:25 55:23 56:22 57:21 58:21 59:20 60:19 61:19 62:19 63:19 64:19 65:19 66:19 67:19 68:19 69:19 70:20 71:21 72:21 73:22 74:23 75:24 76:26 77:27 78:31 79:37 80:35 81:34 82:33 83:31 84:27 85:25 86:21 87:16 88:9 97:16 98:25 99:28 100:32 101:39 102:45 103:49 104:52 105:55 106:57 107:49 108:46 109:45 110:45 111:46 112:41 113:34 114:36 115:38 116:36 117:37 118:36 119:36 120:36 121:35 122:35 123:35 124:35 125:37 126:36 127:34 128:35 129:34 130:38 131:45 132:43 133:40 134:36 135:33 136:31 137:28 138:25 139:21 
-0 -0 0 0.0007957144920749041 0 0 0 0 0 0 0.0001599395575268255 0 1:8 2:6 3:4 4:8 5:10 6:14 7:16 8:18 9:18 10:18 11:18 12:18 13:18 14:18 15:17 16:17 17:18 18:17 19:17 20:17 21:16 22:17 23:17 24:16 25:17 26:16 27:16 28:16 29:16 30:16 31:16 32:15 33:16 34:15 35:16 36:15 37:15 38:15 39:15 40:14 41:15 42:15 43:25 44:30 45:32 46:34 47:37 48:38 49:39 50:40 51:42 52:43 53:44 54:44 55:38 56:34 57:34 58:32 59:30 60:29 61:28 62:28 63:26 64:26 65:26 66:26 67:25 68:25 69:25 70:25 71:26 72:26 73:26 74:26 75:27 76:26 77:27 78:28 79:29 80:31 81:33 82:33 83:39 84:41 85:40 86:38 87:36 88:34 89:32 90:30 91:27 92:24 93:19 94:28 95:35 96:41 97:45 98:50 99:54 100:57 101:60 102:63 103:66 104:68 105:69 106:67 107:59 108:55 109:55 110:54 111:54 112:50 113:49 114:47 115:46 116:45 117:45 118:44 119:43 120:43 121:42 122:43 123:43 124:44 125:45 126:45 127:48 128:58 129:56 130:52 131:50 132:47 133:42 134:39 135:37 136:35 137:33 138:29 139:25 
-0 -0 9.668650749354166e-05 0 0 0 0 0 0 0 0 0 2:3 3:6 4:8 5:11 6:13 7:15 8:15 9:16 10:16 11:15 12:15 13:15 14:15 15:14 16:15 17:15 18:14 19:14 20:15 21:14 22:14 23:14 24:14 25:13 26:14 27:13 28:14 29:13 30:14 31:13 32:13 33:13 34:13 35:12 36:13 37:12 38:13 39:13 40:12 41:12 42:14 43:26 44:28 45:31 46:33 47:35 48:36 49:37 50:39 51:40 52:41 53:40 54:33 55:30 56:28 57:27 58:27 59:25 60:24 61:24 62:24 63:23 64:22 65:22 66:22 67:22 68:23 69:22 70:22 71:22 72:22 73:24 74:23 75:23 76:23 77:24 78:25 79:25 80:25 81:26 82:29 83:31 84:40 85:38 86:36 87:35 88:33 89:31 90:29 91:27 92:23 93:17 94:29 95:35 96:41 97:47 98:50 99:54 100:58 101:61 102:64 103:67 104:61 105:57 106:55 107:54 108:53 109:50 110:46 111:44 112:43 113:42 114:42 115:39 116:39 117:39 118:38 119:38 120:38 121:38 122:37 123:35 124:34 125:35 126:36 127:39 128:46 129:46 130:44 131:42 132:40 133:38 134:36 135:32 136:29 137:25 138:19 139:8 
-0 -0 0 0 0 0 0 0 0 0 0 0.0002376708410896981 4:2 5:5 6:8 7:10 8:13 9:15 10:15 11:15 12:15 13:15 14:14 15:14 16:14 17:15 18:15 19:14 20:14 21:14 22:14 23:14 24:13 25:13 26:14 27:13 28:14 29:14 30:14 31:14 32:14 33:13 34:14 35:13 36:14 37:13 38:13 39:13 40:13 41:13 42:13 43:24 44:30 45:31 46:33 47:34 48:35 49:36 50:37 51:38 52:40 53:40 54:32 55:28 56:26 57:25 58:23 59:21 60:22 61:21 62:20 63:20 64:19 65:19 66:18 67:18 68:18 69:18 70:19 71:19 72:19 73:19 74:20 75:21 76:21 77:22 78:23 79:24 80:25 81:28 82:30 83:39 84:37 85:36 86:35 87:33 88:31 89:29 90:25 91:23 92:18 98:17 99:23 100:30 101:40 102:44 103:48 104:52 105:55 106:59 107:61 108:63 109:56 110:51 111:51 112:50 113:49 114:49 115:47 116:44 117:43 118:43 119:42 120:41 121:40 122:39 123:38 124:38 125:40 126:40 127:40 128:41 129:40 130:41 131:43 132:49 133:50 134:47 135:44 136:40 137:37 138:35 139:32 
-0 -0 0 0 0 0 0.000932307136025989 0 0 0 0 0 5:3 6:6 7:8 8:11 9:13 10:15 11:14 12:14 13:14 14:14 15:14 16:14 17:13 18:14 19:14 20:14 21:14 22:14 23:14 24:13 25:14 26:13 27:14 28:13 29:13 30:13 31:13 32:13 33:13 34:13 35:13 36:13 37:14 38:13 39:13 40:13 41:13 42:12 43:16 44:26 45:28 46:31 47:33 48:34 49:35 50:36 51:37 52:38 53:39 54:34 55:29 56:28 57:26 58:24 59:23 60:22 61:22 62:20 63:20 64:20 65:20 66:20 67:19 68:19 69:20 70:20 71:20 72:19 73:19 74:20 75:20 76:22 77:23 78:22 79:24 80:26 81:26 82:32 83:38 84:36 85:35 86:33 87:31 88:29 89:27 90:23 91:21 92:15 97:6 98:22 99:30 100:37 101:41 102:46 103:50 104:53 105:56 106:59 107:61 108:56 109:53 110:49 111:48 112:49 113:48 114:46 115:46 116:44 117:41 118:41 119:40 120:40 121:39 122:38 123:39 124:39 125:40 126:39 127:38 128:37 129:39 130:39 131:47 132:48 133:44 134:40 135:37 136:34 137:32 138:30 139:25 
-0 -0 0 0 0 0 0 0 0 0.0001585408390041128 0 0 4:4 5:7 6:9 7:11 8:13 9:13 10:14 11:14 12:14 13:13 14:13 15:13 16:12 17:12 18:12 19:13 20:12 21:12 22:13 23:12 24:12 25:11 26:12 27:11 28:12 29:11 30:12 31:12 32:11 33:11 34:11 35:11 36:11 37:11 38:10 39:12 40:13 41:13 42:18 43:27 44:30 45:31 46:33 47:34 48:36 49:37 50:38 51:39 52:31 53:28 54:25 55:24 56:23 57:21 58:21 59:20 60:20 61:20 62:20 63:20 64:18 65:18 66:18 67:18 68:18 69:20 70:20 71:20 72:20 73:21 74:20 75:22 76:22 77:22 78:24 79:25 80:29 81:36 82:34 83:32 84:30 85:28 86:26 87:23 88:20 89:13 90:4 94:16 95:25 96:31 97:37 98:41 99:44 100:48 101:51 102:55 103:52 104:47 105:45 106:45 107:44 108:43 109:45 110:44 111:39 112:37 113:36 114:38 115:38 116:37 117:36 118:35 119:35 120:34 121:35 122:34 123:34 124:35 125:35 126:35 127:36 128:42 129:44 130:39 131:36 132:34 133:32 134:30 135:26 136:22 137:13 
-0 -0 0 0 0 0 0 0 0 0.0005435091392991066 0 0 5:2 6:5 7:8 8:11 9:12 10:14 11:14 12:15 13:14 14:13 15:13 16:14 17:14 18:13 19:13 20:13 21:13 22:13 23:13 24:12 25:12 26:13 27:12 28:12 29:12 30:12 31:11 32:12 33:11 34:11 35:11 36:11 37:11 38:11 39:10 40:11 41:10 42:10 43:12 44:23 45:27 46:30 47:32 48:33 49:34 50:36 51:37 52:37 53:34 54:29 55:26 56:25 57:24 58:23 59:22 60:21 61:21 62:21 63:19 64:19 65:19 66:19 67:19 68:18 69:18 70:18 71:19 72:19 73:19 74:19 75:19 76:21 77:21 78:22 79:23 80:23 81:25 82:28 83:36 84:35 85:33 86:31 87:29 88:26 89:23 90:19 91:14 92:12 96:12 97:23 98:30 99:36 100:41 101:45 102:49 103:52 104:56 105:56 106:48 107:46 108:44 109:45 110:45 111:43 112:42 113:41 114:39 115:38 116:37 117:37 118:36 119:36 120:35 121:36 122:37 123:36 124:34 125:35 126:36 127:35 128:33 129:35 130:38 131:45 132:40 133:37 134:35 135:32 136:28 137:26 138:23 139:21 
-0 -0 0 0 0 0 0 0 0 0 0 0.0001591294262952851 3:1 4:5 5:7 6:9 7:10 8:12 9:13 10:14 11:15 12:15 13:15 14:15 15:15 16:14 17:13 18:14 19:14 20:14 21:14 22:13 23:14 24:14 25:13 26:13 27:13 28:13 29:13 30:12 31:11 32:12 33:12 34:13 35:25 36:28 37:31 38:34 39:35 40:36 41:37 42:38 43:39 44:40 45:42 46:40 47:33 48:28 49:28 50:26 51:24 52:23 53:22 54:22 55:22 56:22 57:22 58:22 59:22 60:22 61:21 62:21 63:21 64:21 65:21 66:22 67:22 68:21 69:21 70:21 71:22 72:22 73:23 74:23 75:22 76:24 77:27 78:28 79:31 80:33 81:39 82:37 83:35 84:34 85:32 86:29 87:27 88:24 89:22 90:18 91:14 92:2 93:24 94:34 95:41 96:45 97:49 98:53 99:55 100:59 101:61 102:64 103:53 104:46 105:46 106:46 107:45 108:44 109:44 110:44 111:40 112:40 113:41 114:40 115:38 116:39 117:39 118:39 119:39 120:40 121:40 122:39 123:40 124:39 125:38 126:44 127:57 128:52 129:48 130:46 131:44 132:41 133:39 134:37 135:34 136:29 137:20 138:3 
-0.001781478505610385 -0.0006231527846352518 0 0 0 0 0 0.0002112553747364065 5.593729178166784e-05 0.0003031711346339082 0 9.820792156726738e-05 2:4 3:7 4:9 5:11 6:14 7:16 8:16 9:16 10:15 11:15 12:15 13:14 14:14 15:14 16:13 17:13 18:13 19:12 20:12 21:12 22:12 23:12 24:11 25:12 26:11 27:11 28:11 29:11 30:11 31:11 32:11 33:18 34:26 35:30 36:32 37:33 38:35 39:37 40:38 41:38 42:39 43:34 44:30 45:27 46:24 47:24 48:22 49:22 50:21 51:22 52:21 53:21 54:20 55:20 56:20 57:20 58:20 59:21 60:21 61:21 62:21 63:21 64:21 65:21 66:21 67:20 68:20 69:20 70:20 71:20 72:21 73:21 74:22 75:23 76:24 77:26 78:29 79:37 80:36 81:34 82:32 83:30 84:28 85:24 86:22 87:17 88:10 94:22 95:31 96:38 97:44 98:50 99:53 100:56 101:59 102:62 103:64 104:47 105:44 106:43 107:43 108:43 109:41 110:39 111:37 112:37 113:36 114:36 115:35 116:34 117:34 118:34 119:34 120:34 121:33 122:34 123:33 124:32 125:32 126:33 127:33 128:47 129:49 130:46 131:45 132:43 133:41 134:38 135:35 136:31 137:26 138:16 
-0 -0 -0 0 0 0 0 0.0002248190886076453 0 0 0 0 1:19 2:34 3:44 4:43 5:40 6:38 7:37 8:38 9:39 10:40 11:41 12:42 13:26 14:23 15:22 16:21 17:20 18:19 19:20 20:20 21:19 22:19 23:19 24:19 25:20 26:20 27:20 28:20 29:20 30:20 31:20 32:20 33:20 34:20 35:20 36:20 37:20 38:20 39:20 40:20 41:20 42:20 43:20 44:21 45:21 46:20 47:20 48:20 49:20 50:20 51:20 52:20 53:20 54:20 55:20 56:20 57:20 58:20 59:20 60:20 61:20 62:20 63:20 64:20 65:20 66:20 67:20 68:20 69:20 70:20 71:20 72:20 73:20 74:21 75:21 76:21 77:22 78:22 79:25 80:26 81:39 82:42 83:42 84:41 85:40 86:39 87:38 88:37 89:35 90:31 91:14 93:87 94:88 95:89 96:88 97:89 98:88 99:89 100:89 101:89 102:80 103:22 104:20 105:21 106:21 107:21 108:21 109:22 110:20 111:21 112:22 113:22 114:21 115:20 116:21 117:21 118:20 119:20 120:24 121:25 122:26 123:27 124:27 125:29 126:30 127:38 128:89 129:88 130:86 131:83 132:81 133:78 134:76 135:72 136:67 137:61 138:1 
-0 -0.001999402154723987 -0 0 0 0 0 4.265691261111105e-05 0 0 0 0 1:28 2:31 3:34 4:36 5:38 6:39 7:40 8:41 9:42 10:27 11:23 12:23 13:22 14:22 15:21 16:21 17:20 18:21 19:21 20:21 21:21 22:21 23:21 24:21 25:21 26:21 27:20 28:20 29:20 30:20 31:20 32:20 33:21 34:20 35:20 36:20 37:21 38:21 39:19 40:20 41:21 42:20 43:20 44:19 45:21 46:21 47:20 48:19 49:21 50:20 51:20 52:20 53:19 54:19 55:20 56:20 57:19 58:19 59:19 60:19 61:20 62:20 63:20 64:20 65:20 66:20 67:20 68:20 69:20 70:20 71:21 72:21 73:20 74:21 75:21 76:23 77:23 78:25 79:39 80:42 81:40 82:40 83:39 84:38 85:37 86:36 87:33 88:23 93:84 94:87 95:87 96:88 97:88 98:88 99:88 100:88 101:88 102:88 103:23 104:19 105:19 106:19 107:19 108:19 109:19 110:18 111:18 112:18 113:18 114:19 115:19 116:19 117:19 118:19 119:18 120:19 121:18 122:18 123:19 124:21 125:22 126:23 127:26 128:47 129:81 130:80 131:78 132:77 133:75 134:72 135:70 136:67 137:63 138:45 
-0 -0.006474218324417685 -0 0 0 0 0 0 0 0 0 0 1:13 2:12 3:12 4:29 5:29 6:33 7:38 8:37 9:37 10:39 11:40 12:41 13:42 14:32 15:24 16:23 17:21 18:22 19:21 20:21 21:20 22:20 23:21 24:21 25:21 26:21 27:21 28:21 29:21 30:21 31:21 32:21 33:21 34:21 35:21 36:21 37:21 38:21 39:21 40:21 41:21 42:21 43:21 44:21 45:21 46:21 47:21 48:21 49:20 50:20 51:20 52:20 53:20 54:20 55:20 56:20 57:20 58:20 59:20 60:20 61:20 62:20 63:20 64:20 65:20 66:20 67:20 68:20 69:20 70:20 71:20 72:20 73:20 74:20 75:20 76:19 77:20 78:20 79:21 80:21 81:21 82:23 83:25 84:31 85:43 86:42 87:41 88:40 89:39 90:38 91:37 92:35 93:88 94:88 95:89 96:89 97:89 98:89 99:89 100:89 101:89 102:89 103:23 104:20 105:20 106:20 107:18 108:18 109:18 110:18 111:18 112:18 113:18 114:17 115:18 116:19 117:20 118:20 119:20 120:20 121:21 122:21 123:23 124:25 125:25 126:28 127:32 128:61 129:89 130:85 131:82 132:79 133:76 134:74 135:72 136:68 137:63 138:53 
-0 -0.0008548751639860926 -0.0002319564590443584 0.0002651219282340663 0 0.0007346446280769863 0.0001311491109956257 0.001124669490167609 0 5.908721221185598e-05 0.0001626596284510458 0.0001352132342635523 5:26 6:33 7:36 8:38 9:39 10:40 11:41 12:42 13:43 14:43 15:27 16:25 17:23 18:22 19:22 20:21 21:21 22:21 23:22 24:22 25:21 26:22 27:22 28:22 29:22 30:22 31:22 32:22 33:22 34:22 35:22 36:22 37:21 38:21 39:21 40:21 41:21 42:21 43:21 44:20 45:20 46:21 47:21 48:41 49:43 50:43 51:43 52:43 53:43 54:43 55:43 56:43 57:42 58:43 59:42 60:43 61:43 62:43 63:42 64:42 65:42 66:42 67:41 68:42 69:41 70:40 71:38 72:34 73:34 74:34 75:28 76:24 77:23 78:25 79:26 80:44 81:43 82:42 83:41 84:40 85:39 86:38 87:36 88:34 89:30 94:82 95:84 96:85 97:85 98:85 99:85 100:84 101:85 102:85 103:85 104:84 105:21 106:20 107:39 108:45 109:46 110:47 111:48 112:47 113:49 114:48 115:47 116:45 117:43 118:43 119:44 120:47 121:48 122:47 123:47 124:48 125:47 126:42 127:39 128:27 129:70 130:79 131:79 132:77 133:75 134:73 135:71 136:69 137:66 138:63 139:50 
-0.0004492837533443737 -0 -0.0003563058938308352 0.0001174111471201617 0.0003457615851366465 0 3.823556699972215e-05 0 0.0008440373837749815 0.0002048795205238521 0.0002047423955548271 9.08722038697302e-05 5:30 6:34 7:36 8:37 9:38 10:39 11:40 12:41 13:26 14:20 15:19 16:18 17:17 18:17 19:16 20:16 21:16 22:15 23:15 24:15 25:15 26:15 27:15 28:15 29:15 30:15 31:15 32:15 33:15 34:15 35:15 36:15 37:15 38:15 39:15 40:15 41:15 42:15 43:15 44:15 45:15 46:15 47:15 48:15 49:15 50:15 51:15 52:15 53:15 54:15 55:15 56:15 57:15 58:15 59:15 60:15 61:15 62:15 63:15 64:15 65:15 66:15 67:15 68:15 69:15 70:15 71:15 72:15 73:15 74:16 75:16 76:16 77:17 78:17 79:19 80:20 81:24 82:40 83:41 84:40 85:39 86:38 87:37 88:36 89:34 90:30 98:84 99:86 100:86 101:86 102:86 103:86 104:86 105:86 106:86 107:18 108:17 109:16 110:17 111:17 112:17 113:17 114:17 115:17 116:17 117:17 118:17 119:17 120:17 121:17 122:17 123:17 124:17 125:19 126:19 127:19 128:19 129:19 130:21 131:22 132:24 133:30 134:80 135:78 136:76 137:74 138:72 139:70 
-0.0003582670511344381 -0.003201233225332265 -0.0001252848656465399 0 0.0002836034645349589 0 0 0.001067122296898115 0.0003159291152884679 5.611088773979922e-05 0 9.481828102559052e-06 6:29 7:32 8:34 9:35 10:37 11:38 12:38 13:39 14:20 15:18 16:17 17:16 18:15 19:15 20:15 21:15 22:14 23:14 24:14 25:14 26:15 27:15 28:15 29:15 30:15 31:16 32:16 33:16 34:16 35:16 36:16 37:16 38:16 39:16 40:16 41:16 42:16 43:16 44:16 45:16 46:16 47:16 48:16 49:16 50:15 51:15 52:15 53:15 54:15 55:15 56:15 57:15 58:15 59:16 60:16 61:16 62:16 63:16 64:16 65:17 66:17 67:17 68:17 69:17 70:17 71:16 72:16 73:16 74:16 75:16 76:17 77:17 78:18 79:18 80:19 81:20 82:23 83:40 84:39 85:38 86:37 87:36 88:34 89:32 90:27 93:85 94:85 95:85 96:85 97:85 98:85 99:75 100:40 101:17 102:16 103:16 104:16 105:16 106:16 107:16 108:16 109:16 110:16 111:16 112:16 113:16 114:16 115:16 116:16 117:16 118:16 119:16 120:17 121:17 122:17 123:19 124:21 125:21 126:25 127:53 128:78 129:77 130:75 131:72 132:70 133:67 134:63 135:48 136:6 
-0 -0 -0 0 0 0.0002155449133548998 0 0 0 0 0 0 2:16 3:28 4:30 5:33 6:34 7:35 8:36 9:38 10:39 11:39 12:36 13:26 14:23 15:22 16:22 17:21 18:20 19:20 20:20 21:20 22:20 23:20 24:20 25:21 26:21 27:21 28:22 29:22 30:22 31:22 32:22 33:22 34:22 35:22 36:22 37:22 38:22 39:22 40:22 41:22 42:22 43:22 44:22 45:22 46:22 47:22 48:19 49:20 50:21 51:21 52:21 53:21 54:21 55:21 56:21 57:22 58:22 59:22 60:22 61:22 62:22 63:22 64:21 65:21 66:21 67:21 68:21 69:21 70:21 71:21 72:21 73:21 74:21 75:21 76:21 77:22 78:25 79:26 80:26 81:27 82:40 83:39 84:39 85:38 86:36 87:35 88:33 89:32 90:31 91:27 92:24 95:50 96:90 97:91 98:91 99:90 100:91 101:90 102:91 103:91 104:91 105:90 106:22 107:21 108:20 109:21 110:21 111:22 112:22 113:22 114:22 115:22 116:22 117:21 118:21 119:21 120:21 121:23 122:25 123:24 124:24 125:25 126:26 127:29 128:41 129:82 130:81 131:79 132:77 133:76 134:73 135:70 136:66 137:62 138:54 139:20 
-0 -0.00330812770827175 -0 0 0 0 0 0.000318888797815701 0 0 0 0 7:25 8:32 9:34 10:36 11:37 12:38 13:39 14:40 15:24 16:21 17:19 18:18 19:17 20:17 21:17 22:16 23:16 24:16 25:16 26:16 27:16 28:16 29:17 30:17 31:17 32:17 33:17 34:17 35:17 36:18 37:18 38:18 39:18 40:18 41:18 42:18 43:18 44:18 45:17 46:18 47:18 48:18 49:18 50:17 51:17 52:17 53:17 54:17 55:17 56:17 57:17 58:17 59:17 60:17 61:17 62:17 63:17 64:17 65:17 66:17 67:17 68:17 69:17 70:17 71:17 72:17 73:17 74:17 75:17 76:18 77:19 78:20 79:21 80:23 81:41 82:39 83:38 84:38 85:35 86:33 87:30 88:21 94:72 95:80 96:81 97:81 98:82 99:82 100:82 101:82 102:63 103:18 104:16 105:16 106:16 107:16 108:16 109:16 110:16 111:16 112:16 113:16 114:16 115:16 116:16 117:16 118:16 119:15 120:15 121:15 122:16 123:17 124:18 125:19 126:19 127:21 128:22 129:52 130:74 131:73 132:71 133:69 134:66 135:63 136:59 137:47 
-0.0006390345207500898 -0.0007438674705030932 -0.0004258410751157581 0.001016267143038144 0.0003701130443678593 0.001087340794706587 0.0002012284367946871 0.0001322400253486156 0.0004249045557784787 0.0003788472035942546 0.0001396554132698224 0.0001935972254620598 3:12 4:24 5:27 6:31 7:33 8:34 9:36 10:37 11:38 12:38 13:29 14:23 15:22 16:21 17:20 18:21 19:23 20:24 21:23 22:26 23:28 24:29 25:28 26:27 27:28 28:29 29:30 30:30 31:28 32:25 33:23 34:19 35:21 36:22 37:19 38:19 39:21 40:19 41:19 42:19 43:19 44:23 45:23 46:23 47:23 48:21 49:21 50:21 51:20 52:20 53:21 54:19 55:17 56:17 57:17 58:17 59:17 60:17 61:17 62:18 63:17 64:18 65:19 66:19 67:19 68:19 69:19 70:18 71:18 72:18 73:18 74:19 75:19 76:20 77:20 78:22 79:23 80:39 81:38 82:38 83:37 84:36 85:35 86:34 87:32 88:30 89:28 90:22 94:10 95:75 96:83 97:81 98:79 99:81 100:83 101:82 102:81 103:80 104:24 105:22 106:26 107:41 108:52 109:53 110:53 111:50 112:47 113:36 114:35 115:34 116:35 117:33 118:26 119:20 120:20 121:21 122:21 123:21 124:24 125:24 126:28 127:62 128:78 129:77 130:75 131:73 132:70 133:67 134:63 135:58 136:6 
-0 -0 -0 0 0 0 0 0 0.0007454245579402368 0 0 0 5:11 6:26 7:29 8:31 9:33 10:34 11:35 12:36 13:37 14:26 15:22 16:20 17:20 18:20 19:19 20:18 21:19 22:18 23:18 24:18 25:18 26:18 27:18 28:17 29:17 30:17 31:17 32:17 33:17 34:17 35:17 36:17 37:17 38:17 39:18 40:17 41:17 42:17 43:17 44:18 45:18 46:18 47:19 48:19 49:17 50:18 51:18 52:18 53:18 54:18 55:18 56:18 57:18 58:18 59:18 60:18 61:18 62:18 63:18 64:18 65:18 66:18 67:18 68:18 69:18 70:18 71:18 72:18 73:18 74:18 75:18 76:18 77:18 78:19 79:20 80:20 81:21 82:21 83:22 84:38 85:38 86:37 87:36 88:35 89:33 90:31 91:29 92:26 94:46 95:87 96:88 97:88 98:88 99:88 100:87 101:87 102:88 103:53 104:18 105:17 106:18 107:18 108:18 109:18 110:17 111:17 112:18 113:16 114:17 115:17 116:17 117:18 118:18 119:18 120:18 121:18 122:19 123:20 124:21 125:22 126:23 127:25 128:29 129:61 130:75 131:73 132:71 133:68 134:65 135:62 136:56 137:50 
-0 -0 -0 0.0001069986503007861 0 0.0005508044015527783 0 0.0002148055896352068 0 0 0 0 6:26 7:30 8:32 9:34 10:35 11:36 12:37 13:38 14:39 15:27 16:23 17:22 18:22 19:21 20:20 21:19 22:20 23:20 24:19 25:19 26:19 27:20 28:20 29:20 30:20 31:20 32:20 33:20 34:20 35:20 36:20 37:20 38:20 39:20 40:19 41:19 42:19 43:20 44:20 45:20 46:20 47:20 48:20 49:20 50:20 51:20 52:20 53:20 54:20 55:20 56:19 57:19 58:19 59:19 60:19 61:19 62:20 63:19 64:19 65:19 66:19 67:19 68:19 69:19 70:19 71:19 72:19 73:19 74:18 75:18 76:19 77:20 78:20 79:21 80:21 81:25 82:39 83:38 84:37 85:36 86:35 87:34 88:33 89:31 90:28 91:22 96:47 97:85 98:86 99:86 100:86 101:86 102:86 103:86 104:86 105:86 106:21 107:19 108:19 109:19 110:19 111:19 112:19 113:19 114:19 115:19 116:19 117:19 118:19 119:19 120:19 121:19 122:20 123:20 124:20 125:21 126:22 127:24 128:24 129:28 130:78 131:76 132:74 133:72 134:70 135:68 136:65 137:62 138:56 139:47 
